tree
version=v4
num_class=1
num_tree_per_iteration=1
label_index=0
max_feature_idx=25
objective=binary sigmoid:1
feature_names=discount Home_policy_ind quoted_amt credit_score Cov_package_type CAT_zone number_drivers num_loaned_veh num_owned_veh num_leased_veh total_number_veh primary_parking state_safty quote_year quote_month car_no ownership_type car_age col_safty model_risk living_status dr_age safty_rating high_education_ind gender_F gender_M
feature_infos=[0:1] [0:1] [15:108608] [369:850] [1:3] [1:5] [1:6] [0:3] [1:3] [0:2] [1:8] [1:3] [1:3] [2015:2018] [1:12] [1:4.5] [1.6666666666666667:3] [0:14] [1:3] [0:1] [1:3] [4:12.124355652982141] [-13:100] [0:1] [0:1] [0:1]
tree_sizes=1688 1757 1740 1741 1743 1748 1760 1757 1749 1749 1744 1748 1760 1752 1739 1735 1755 1747 1746 1752 1756 1751 1759 1749 1752 1755 1759 1761 1758 1753 1751 1744 1751 1747 1760 1751 1741 1752 1760 1762 1745 1746 1754 1763 1737 1751 1756 1758 1754 1767 1756 1752 1750 1764 1755 1734 1756 1763 1743 1747 1740 1760 1753 1747 1736 1749 1752 1761 1754 1758 1750 1746 1748 1731 1762 1744 1754 1742 1741 1749 1750 1753 1750 1749 1750 1764 1746 1749 1757 1754 1743 1753 1751 1753 1740 1757 1752 1752 1753 1754 1755 1755 1766 1748 1752 1760 1767 1751 1753 1747 1755 1732 1757 1748 1745 1744 1746 1745 1750 1750 1755 1765 1751 1761 1759 1775 1758 1771 1752 1754 1757 1741 1756 1748 1735 1764 1757 1749 1739 1754 1762 1754 1749 1755 1748 1744 1750 1764 1752 1763 1731 1751 1750 1758 1762 1763 1762 1739 1746 1744 1755 1746 1750 1748 1745 1755 1755 1739 1742 1750 1735 1747 1743 1747 1759 1746 1751 1751 1754 1763 1746 1739 1758 1756 1762 1742 1737 1742 1743 1752 1768 1755 1765 1751 1757 1742 1738 1735 1744 1742 1744 1758 1744 1738 1752 1745 1726 1753 1755 1755 1749 1742 1736 1733 1755 1738 1764 1752 1761 1734 1753 1743 1742 1732 1753 1748 1749 1741 1749 1755 1753 1751 1742 1741 1734 1740 1747 1724 1759 1737 1742 1742 1733 1745 1746 1755 1738 1733 1743 1737 1738 1751 1753 1747 1745 1756 1746 1734 1756 1736 1739 1730 1759 1727 1751 1734 1716 1741 1733 1726 1754 1738 1758 1750 1743 1736 1740 1751 1740 1745 1750 1759 1742 1754 1745 1755 1748 1735 1726 1743 1742 1721 1712 1742 1727 1745 1754 1724 1750 1735 1747 1725 1743 1755 1739 1737 1731 1724 1730 1743 1739 1747 1747 1740 1733 1745 1747 1730 1743 1754 1735 1737 1748 1755 1754 1722 1743 1754 1737 1744 1727 1737 1751 1734 1770 1728 1749 1735 1739 1750 1745 1746 1741 1739 1740 1729 1715 1739 1739 1729 1725 1731 1742 1718 1744 1735 1733 1748 1717 1737 1752 1742 1742 1749 1748 1736 1742 1748 1733 1733 1734 1721 1720 1727 1738 1747 1761 1751 1738 1742 1751 1739 1745 1765 1745 1742 1727 1734 1733 1722 1710 1752 1725 1754 1751 1734 1736 1737 1734 1730 1727 1737 1748 1713 1720 1733 1756 1748 1761 1748 1739 1726 1741 1744 1740 1746 1745 1754 1756 1754 1741 1780 1734 1741 1756 1736 1744 1731 1747 1736 1739 1736 1712 1714 1720 1744 1748 1743 1746 1734 1731 1742 1747 1743 1737 1729 1730 1727 1745 1727 1717 1743 1717 1730 1733 1733 1755 1739 1719 1731 1730 1745 1743 1729 1734 1744 1751 1770 1752 1741 1729 1727 1730 1738 1746 1727 1732 1747 1736 1753 1737 1729 1735 1763 1734 1747 1726 1722 1708 1739 1745 1719 1730 1752 1752 1731 1742 1744 1737 1748 1727 1724 1735 1723 1734 1729 1740 1746 1752 1748 1708 1739 1737 1741 1722 1735 1743 1727 1721 1737 1727 1712 1737 1730 1726 1720 1724 1721 1726 1732 1736 1732 1718 1734 1731 1714 1724 1727 1734 1738 1749 1735 1740 1717 1746 1729 1733 1722 1728 1744 1733 1731 1732 1724 1734 1730 1720 1719 1724 1728 1744 1728 1733 1727 1729 1712 1724 1718 1719 1734 1715 1718 1735 1724 1736 1724 1726 1758 1725 1747 1737 1738 1722 1721 1715 1733 1739 1749 1738 1744 1737 1713 1729 1741 1720 1727 1725 1725 1725 1756 1708 1718 1721 1739 1712 1754 1726 1713 1730 1746 1716 1728 1740 1739 1741 1743 1719 1732 1730 1727 1732 1752 1730 1719 1721 1710 1710 1735 1735 1714 1731 1731 1727 1712 1717 1726 1732 1730 1733 1712 1734 1730 1733 1724 1734 1732 1724 1734 1739 1735 1739 1719 1713 1726 1721 1736 1723 1739 1727 1729 1743 1735 1738 1730 1722 1704 1705 1725 1740 1723 1730 1718 1714 1721 1719 1716 1720 1708 1743 1717 1739 1757 1716 1716 1725 1711 1731 1709 1720 1724 1721 1739 1697 1711 1708 1708 1727 1730 1722 1731 1727 1726 1721 1725 1730 1730 1730 1743 1730 1732 1731 1732 1738 1738 1741 1745 1742 1713 1744 1709 1743 1742 1733 1746 1727 1727 1746 1736 1726 1743 1739 1714 1742 1705 1713 1732 1735 1731 1742 1722 1724 1714 1724 1722 1722 1724 1726 1745 1706 1728 1708 1722 1718 1712 1702 1730 1736 1746 1731 1740 1713 1719 1733 1712 1728 1731 1721 1732 1733 1731 1729 1727 1724 1731 1713 1729 1714 1731 1727 1736 1716 1726 1731 1745 1726 1720 1718 1708 1725 1720 1716 1712 1716 1711 1711 1724 1723 1715 1736 1716 1729 1716 1714 1716 1729 1727 1736 1723 1725 1721 1738 1746 1749 1746 1739 1740 1736 1741 1733 1740 1731 1717 1725 1714 1731 1723 1715 1727 1742 1710 1718 1733 1716 1711 1721 1717 1735 1724 1723 1721 1730 1740 1741 1737 1720 1730 1720 1722 1721 1737 1735 1741 1732 1724 1724 1724 1736 1729 1745 1746 1711 1723 1713 1730 1711 1759 1751 1710 1757 1725 1711 1698 1723 1701 1714 1709 1707 1737 1717 1709 1738 1743 1746 1736 1747 1732 1730 1721 1738 1725 1729 1719 1722 1730 1723 1718 1752 1724 1722 1725 1726 1734 1730 1733 1716 1708 1728 1705 1725 1726 1719 1729 1732 1733 1714 1723 1718 1733 1699 1733 1721 1717 1715 1716 1715 1731 1709 1729 1738 1731 1718 1732 1705 1748 1733 1738 1722 1730 1728 1722 1719 1723 1719 1725 1711 1730 1734 1731 1739 1740 1723 1737 1731 1729 1733 1750 1733 1744 1757 1724 1710 1725 1720 1727 1734 1724 1740 1735 1730 1723 1744 1726 1738 1730 1748 1721 1715 1732 1743 1735 1718 1728 1722 1712 1728 1729 1717 1704 1708 1710 1728 1731 1728 1737 1726 1717 1738 1722 1721 1728 1720 1722 1731 1716 1716 1746 1736 1747 1726 1769 1742 1753 1751 1755 1738 1728 1706 1724 1721 1724 1706 1745 1713 1716 1713 1729 1725 1721 1727 1731 1728 1741 1710 1731 1719 1707 1715 1707 1712 1746 1731 1723 1733 1719 1733 1726 1730 1714 1751 1728 1724 1716 1710 1707 1709 1730 1724 1734 1747 1716 1715 1722 1714 1720 1724 1709 1703 1716 1737 1734 1727 1740 1738 1739 1725 1715 1714 1729 1710 1728 1721 1709 1738 1712 1722 1720 1722 1753 1749 1746 1718 1734 1728 1720 1718 1712 1740 1715 1729 1732 1722 1718 1731 1723 1724 1723 1735 1715 1730 1729 1751 1754 1722 1752 1758 1711 1713 1713 1710 1706 1724 1736 1731 1726 1736 1713 1713 1707 1723 1711 1748 1734 1752 1729 1734 1732 1729 1739 1726 1720 1722 1723 1754 1724 1725 1726 1731 1715 1735 1717 1709 1715 1723 1706 1718 1730 1733 1710 1729 1712 1712 1715 1731 1731 1723 1729 1741 1729 1728 1746 1737 1724 1732 1745 1742 1719 1738 1746 1724 1737 1731 1729 1735 1727 1748 1727 1734 1736 1736 1739 1731 1722 1727 1739 1720 1725 1748 1755 1762 1751 1741 1739 1733 1731 1757 1722 1728 1719 1726 1735 1719 1714 1716 1713 1710 1724 1714 1716 1750 1717 1730 1712 1712 1714 1719 1713 1725 1721 1716 1719 1727 1716 1726 1732 1722 1727 1728 1725 1715 1735 1717 1727 1722 1726 1724 1712 1740 1747 1738 1704 1716 1721 1722 1732 1742 1704 1724 1732 1727 1703 1714 1739 1721 1723 1733 1716 1730 1738 1736 1719 1733 1714 1713 1725 1720 1739 1753 1743 1733 1730 1733 1727 1708 1725 1735 1722 1722 1717 1720 1715 1714 1738 1736 1720 1713 1722 1738 1726 1741 1726 1716 1723 1731 1718 1717 1731 1716 1728 1727 1745 1729 1712 1739 1725 1744 1723 1729 1718 1715 1724 1725 1740 1738 1726 1745 1739 1741 1741 1756 1724 1755 1748 1748 1728 1745 1720 1724 1709 1719 1717 1715 1726 1728 1716 1724 1719 1735 1734 1741 1726 1719 1736 1718 1739 1727 1723 1724 1716 1727 1711 1729 1723 1733 1722 1735 1724 1752 1750 1733 1727 1744 1729 1721 1742 1749 1734 1722 1725 1737 1728 1714 1730 1730 1717 1716 1715 1716 1717 1715 1716 1729 1724 1729 1716 1729 1727 1732 1735 1729 1727 1739 1728 1722 1722 1737 1733 1729 1738 1729 1742 1734 1728 1731 1738 1733 1739 1735 1735 1750 1730 1728 1741 1748 1733 1721 1743 1733 1721 1728 1736 1741 1736 1738 1747 1735 1719 1711 1714 1718 1729 1727 1701 1716 1715 1714 1743 1733 1741 1729 1732 1740 1721 1739 1721 1743 1734 1716 1720 1722 1723 1732 1719 1729 1726 1713 1724 1736 1737 1727 1726 1728 1733 1735 1731 1734 1724 1727 1723 1729 1720 1739 1741 1750 1729 1736 1736 1735 1715 1730 1724 1745 1746 1725 1733 1716 1727 1729 1734 1733 1744 1713 1716 1719 1713 1722 1716 1732 1729 1732 1748 1749 1748 1727 1746 1722 1721 1718 1719 1741 1731 1730 1717 1724 1708 1720 1726 1727 1723 1718 1734 1714 1707 1729 1750 1733 1755 1725 1737 1737 1719 1730 1727 1738 1722 1736 1710 1727 1747 1744 1740 1731 1734 1730 1739 1707 1738 1743 1746 1742 1714 1747 1729 1720 1723 1731 1721 1719 1718 1729 1724 1728 1744 1727 1733 1716 1722 1721 1729 1729 1716 1734 1731 1727 1723 1746 1724 1744 1723 1728 1734 1723 1726 1722 1728 1733 1737 1728 1730 1738 1733 1757 1743 1738 1751 1749 1737 1733 1746 1720 1742 1723 1710 1721 1709 1713 1712 1729 1741 1712 1715 1738 1730 1745 1731 1731 1715 1720 1723 1726 1729 1706 1715 1708 1721 1714 1731 1728 1719 1712 1709 1722 1723 1721 1739 1734 1753 1752 1724 1729 1712 1736 1741 1738 1710 1736 1710 1720 1713 1709 1717 1713 1710 1711 1720 1725 1728 1731 1733 1744 1724 1717 1738 1717 1735 1753 1717 1721 1719 1726 1716 1720 1729 1721 1741 1719 1720 1712 1710 1721 1736 1722 1730 1734 1731 1737 1723 1721 1721 1726 1729 1739 1740 1739 1731 1740 1742 1741 1740 1741 1742 1717 1737 1729 1743 1713 1736 1718 1724 1713 1720 1704 1724 1711 1701 1709 1741 1741 1727 1734 1720 1705 1710 1719 1722 1726 1718 1722 1714 1726 1718 1728 1717 1713 1735 1748 1742 1740 1750 1742 1740 1710 1706 1711 1707 1738 1732 1732 1730 1726 1729 1712 1709 1722 1715 1722 1715 1726 1721 1723 1729 1707 1706 1697 1706 1728 1732 1725 1710 1726 1716 1730 1714 1728 1714 1730 1740 1747 1723 1723 1714 1747 1747 1725 1739 1736 1737 1742 1729 1733 1731 1719 1716 1721 1749 1726 1727 1732 1734 1738 1716 1722 1720 1732 1732 1723 1731 1731 1719 1730 1724 1738 1729 1724 1727 1725 1736 1740 1745 1725 1732 1730 1706 1704 1706 1716 1726 1735 1713 1714 1716 1721 1729 1729 1721 1713 1734 1732 1725 1750 1731 1724 1725 1719 1711 1744 1731 1723 1729 1722 1738 1739 1743 1716 1707 1730 1740 1737 1734 1739 1736 1727 1737 1734 1738 1726 1712 1729 1705 1739 1719 1725 1724 1740 1733 1729 1724 1735 1728 1734 1737 1725 1739 1719 1720 1719 1737 1719 1733 1712 1727 1708 1714 1734 1718 1724 1729 1723 1719 1724 1724 1725 1718 1710 1720 1715 1724 1725 1730 1721 1728 1728 1722 1729 1737 1733 1720 1712 1724 1723 1725 1723 1736 1746 1738 1749 1708 1711 1714 1716 1730 1720 1722 1743 1725 1719 1728 1735 1724 1739 1733 1709 1734 1733 1726 1722 1720 1733 1736 1713 1719 1720 1719 1734 1730 1724 1728 1720 1719 1731 1711 1734 1735 1737 1731 1745 1708 1714 1715 1737 1710 1729 1737 1735 1736 1740 1731 1738 1708 1728 1708 1711 1715 1717 1711 1720 1705 1744 1720 1731 1716

Tree=0
num_leaves=15
num_cat=0
split_feature=21 2 21 23 2 5 23 5 5 16 17 22 21 2
split_gain=177.466 155.453 138.66 59.5094 32.0628 30.4069 28.1388 27.3466 24.0505 23.9988 23.5618 19.9361 19.3734 22.7393
threshold=5.7446869558606624 5847.5000000000009 7.0717889755819305 0.63333333333333341 3332.5000000000005 2.5000000000000004 0.63333333333333341 2.5000000000000004 3.5000000000000004 2.8750000000000004 6.5857142857142863 43.125000000000007 7.0992729161423762 11843.000000000002
decision_type=2 2 2 2 2 2 2 2 2 2 2 2 2 2
left_child=4 2 3 7 -1 10 -4 9 -8 -2 -5 -7 13 -3
right_child=1 12 6 5 -6 11 8 -9 -10 -11 -12 -13 -14 -15
leaf_value=-2.3931151754763338 -2.3828885345742967 -2.3905119346494601 -2.3938910874150583 -2.3756163120429736 -2.3970328749628829 -2.363103711696088 -2.3871304174312002 -2.3898837563430222 -2.3939577480130096 -2.3934234376817387 -2.3886635145476718 -2.3850478194444249 -2.3967271512370907 -2.3965950350613943
leaf_weight=378.99802649021149 162.01090678572655 176.44600179791451 240.0218457877636 114.71293589472771 465.45503172278404 4.2998155355453482 178.59590956568718 164.62150907516479 72.559387162327766 24.954286590218544 15.74039615690708 111.4112918227911 201.24672354757786 94.288812100887299
leaf_count=4936 2110 2298 3126 1494 6062 56 2326 2144 945 325 205 1451 2621 1228
internal_value=-2.39173 -2.38958 -2.38751 -2.38427 -2.39527 -2.3805 -2.39144 -2.38691 -2.3891 -2.38429 -2.37719 -2.38423 -2.39438 -2.39263
internal_weight=0 1560.91 1088.93 597.751 844.453 246.164 491.177 351.587 251.155 186.965 130.453 115.711 471.982 270.735
internal_count=31327 20329 14182 7785 10998 3206 6397 4579 3271 2435 1699 1507 6147 3526
is_linear=0
shrinkage=1


Tree=1
num_leaves=15
num_cat=0
split_feature=21 21 4 5 23 13 23 23 3 5 13 3 3 13
split_gain=174.111 140.521 104.451 43.7516 32.7932 40.9882 32.2029 30.1011 27.6429 25.9777 21.6979 20.4085 20.0982 19.2954
threshold=5.7446869558606624 7.0717889755819305 1.5000000000000002 3.5000000000000004 0.63333333333333341 2016.5000000000002 0.45000000000000007 0.77500000000000013 563.50000000000011 3.5000000000000004 2016.5000000000002 588.50000000000011 605.50000000000011 2016.5000000000002
decision_type=2 2 2 2 2 2 2 2 2 2 2 2 2 2
left_child=9 2 6 7 -4 8 13 10 -6 -1 -3 -8 -9 -2
right_child=1 3 4 -5 5 -7 11 12 -10 -11 -12 -13 -14 -15
leaf_value=-0.0022357649001632216 0.0096834857790550951 0.00080336547628236099 0.00078179014016503288 -0.0045762834400888755 -0.0035841141168945628 0.011499577244632108 -0.00010215357815768658 -0.0019010032197356553 0.0051130125323638233 -0.0059190582040390162 -0.0055780764502915423 0.014604203513149727 0.0049341007444828255 0.00020648727055655136
leaf_weight=547.49060271680355 53.388965457677841 120.35235167294741 370.13366515189409 250.97461879998446 49.113240584731102 77.610738880932331 10.169786207377909 57.703576631844044 142.81345372647047 294.47154551744461 95.609794765710831 130.83316569030285 169.05626873672009 35.950400128960609
leaf_count=7150 692 1571 4812 3278 640 1006 132 753 1848 3848 1248 1689 2194 466
internal_value=0 0.00211638 0.00479318 -0.00124077 0.00271395 0.00536723 0.0105673 0.000650101 0.00288745 -0.00352398 -0.0020218 0.0135435 0.00319477 0.00586992
internal_weight=0 1563.71 870.013 693.697 639.671 269.537 230.342 442.722 191.927 841.962 215.962 141.003 226.76 89.3394
internal_count=31327 20329 11285 9044 8306 3494 2979 5766 2488 10998 2819 1821 2947 1158
is_linear=0
shrinkage=0.01


Tree=2
num_leaves=15
num_cat=0
split_feature=21 21 4 5 5 5 3 3 0 21 3 17 12 22
split_gain=170.82 137.07 100.831 43.0663 31.079 25.7113 22.0229 21.277 20.1759 29.8135 21.4294 19.2776 18.6355 14.2445
threshold=5.7446869558606624 7.0717889755819305 1.5000000000000002 3.5000000000000004 3.5000000000000004 3.5000000000000004 634.50000000000011 591.50000000000011 1.0000000180025095e-35 5.8452551913836652 782.50000000000011 4.9375000000000009 2.5000000000000004 83.708333333333357
decision_type=2 2 2 2 2 2 2 2 2 2 2 2 2 2
left_child=5 2 8 6 7 -1 -3 -4 -2 -10 -11 -12 -8 -14
right_child=1 3 4 -5 -6 -7 12 -9 9 10 11 -13 13 -15
leaf_value=-0.0022175546535458642 0.0085349966876335157 -0.0021996056151044976 0.00083056255399573272 -0.0045479167313106448 0.00029118848041499338 -0.0058889936012596492 -0.00045244871923228076 0.0062914389252766044 -0.0072668774501116655 0.015497173490832759 0.017517649251317963 0.060289776206643574 0.0065531047355890685 -0.00061138463673922718
leaf_weight=546.47185423970222 167.46076982468367 168.71684550493956 100.44943921267986 250.01941684633493 294.38776303082705 293.02241802215576 125.18398842215538 246.28116548806429 5.4572578445076934 55.24067123234272 2.1088559851050368 2.1060869768261909 112.19075767695904 36.871214874088764
leaf_count=7150 2147 2202 1306 3278 3821 3848 1627 3179 70 708 27 27 1458 479
internal_value=0 0.00209136 0.00472612 -0.0012297 0.00268065 -0.00349906 0.000643181 0.0047094 0.0103696 0.0151023 0.0171555 0.0388897 0.00239207 0.00478093
internal_weight=0 1566.47 873.492 692.982 641.118 839.494 442.963 346.731 232.374 64.9129 59.4556 4.21494 274.246 149.062
internal_count=31327 20329 11285 9044 8306 10998 5766 4485 2979 832 762 54 3564 1937
is_linear=0
shrinkage=0.01


Tree=3
num_leaves=15
num_cat=0
split_feature=21 2 21 23 13 2 5 3 21 23 13 0 5 17
split_gain=167.594 147.93 127.379 54.8184 61.5591 31.7344 27.5203 27.2734 29.3932 27.0592 24.8884 22.4857 22.343 22.1487
threshold=5.7446869558606624 5847.5000000000009 7.0717889755819305 0.63333333333333341 2016.5000000000002 3332.5000000000005 2.5000000000000004 755.50000000000011 5.9522336680481862 0.63333333333333341 2017.5000000000002 1.0000000180025095e-35 3.5000000000000004 6.0714285714285721
decision_type=2 2 2 2 2 2 2 2 2 2 2 2 2 2
left_child=5 2 3 4 7 -1 13 -2 -9 10 -4 -8 -11 -5
right_child=1 -3 9 6 -6 -7 11 8 -10 12 -12 -13 -14 -15
leaf_value=-0.0013211007551712246 0.0067007586070855019 -0.0026244370373116866 -0.00014372896096016914 0.01566707528394392 -0.00029934156549594657 -0.0052350300812839404 0.0045558433185729661 -0.0024758767105328991 0.022629790777771077 0.0044554497300991957 -0.0073855137822115263 0.014470436897036752 -0.0021392942726274362 0.0049412876010665385
leaf_weight=376.56774145364761 179.24816326797009 470.60782440006733 173.67691376805305 110.84120141714811 148.668406650424 460.48126778006554 86.51694330573082 5.9144532009959248 22.046923033893108 180.109679505229 65.3013916015625 31.096667088568211 71.876014284789562 23.299617573618889
leaf_count=4936 2306 6147 2270 1402 1915 6062 1109 76 282 2326 856 398 945 297
internal_value=0 0.0020667 0.00407625 0.00713704 0.00461077 -0.00347425 0.0107082 0.00813366 0.0173194 0.000288125 -0.00212256 0.00717723 0.00257438 0.0138041
internal_weight=0 1569.2 1098.6 607.632 355.878 837.049 251.754 207.21 27.9614 490.964 238.978 117.614 251.986 134.141
internal_count=31327 20329 14182 7785 4579 10998 3206 2664 358 6397 3126 1507 3271 1699
is_linear=0
shrinkage=0.01


Tree=4
num_leaves=15
num_cat=0
split_feature=21 2 21 23 13 2 23 5 3 21 13 5 0 17
split_gain=164.427 144.555 123.646 52.7317 59.7082 31.366 26.5045 26.2708 26.0179 27.9242 24.5918 21.8092 21.5608 21.1975
threshold=5.7446869558606624 5847.5000000000009 7.0717889755819305 0.63333333333333341 2016.5000000000002 3332.5000000000005 0.63333333333333341 2.5000000000000004 755.50000000000011 5.9522336680481862 2017.5000000000002 3.5000000000000004 1.0000000180025095e-35 6.5857142857142863
decision_type=2 2 2 2 2 2 2 2 2 2 2 2 2 2
left_child=5 2 3 4 8 -1 10 13 -2 -10 -4 -8 -9 -5
right_child=1 -3 6 7 -6 -7 11 12 9 -11 -12 -13 -14 -15
leaf_value=-0.0013093384436160397 0.0065967922547152391 -0.0026039082728371477 -0.00014230892397503215 0.014960000994928908 -0.00029642206303485573 -0.0052054923581314905 0.0043945222649194177 0.0044931955845347203 -0.0024561858292401696 0.021985913709468435 -0.0073570698266444065 -0.0021217036582210852 0.01415425458049669 0.002734146354607777
leaf_weight=376.15323209762573 180.24733074009418 469.57998876273632 173.6561174094677 119.58983907103539 148.6314567476511 458.47340382635593 180.7773479372263 86.844341188669205 5.9023106545209911 22.463521681725979 64.900335848331451 71.747843585908413 31.471487857401371 16.089593783020973
leaf_count=4936 2306 6147 2270 1494 1915 6062 2326 1109 76 282 856 945 398 205
internal_value=0 0.00204235 0.00402162 0.00702359 0.00454697 -0.00344956 0.000285112 0.010507 0.00799776 0.0169 -0.00210512 0.00254312 0.00706299 0.0135102
internal_weight=0 1571.9 1102.32 611.24 357.245 834.627 491.082 253.995 208.613 28.3658 238.556 252.525 118.316 135.679
internal_count=31327 20329 14182 7785 4579 10998 6397 3206 2664 358 3126 3271 1507 1699
is_linear=0
shrinkage=0.01


Tree=5
num_leaves=15
num_cat=0
split_feature=21 2 21 23 13 5 23 3 6 1 12 3 2 5
split_gain=150.861 130.479 119.095 46.9367 57.2714 33.3112 28.5228 27.1122 32.3912 27.0581 24.3434 22.6738 21.5966 21.4205
threshold=5.8452551913836652 5991.5000000000009 7.0717889755819305 0.63333333333333341 2016.5000000000002 3.5000000000000004 0.45000000000000007 756.50000000000011 2.5000000000000004 1.0000000180025095e-35 2.5000000000000004 599.50000000000011 2805.5000000000005 2.5000000000000004
decision_type=2 2 2 2 2 2 2 2 2 2 2 2 2 2
left_child=5 2 3 4 7 6 -1 11 -9 13 -4 -2 -8 -5
right_child=1 -3 10 9 -6 -7 12 8 -10 -11 -12 -13 -14 -15
leaf_value=-0.0029585629386482811 0.017843060068449872 -0.0026049761063371641 -0.0020844266434088578 0.011828534964940102 -0.00058166714080028561 -0.0057717124535373492 0.0068460634851508027 0.025005419346699181 0.00056681630640099175 0.017434257549146723 0.0023443952779256421 0.0053261229378288397 -0.0011293283777930934 0.005352152626213501
leaf_weight=448.10711708664894 15.98310051858425 431.26200473308563 226.53218048810959 107.89810084551573 131.46500687301159 312.26917864382267 58.551825791597366 17.787951506674293 7.8023145645856848 43.656278565526009 274.49737041443586 153.06734421849251 80.818759620189667 96.964389309287071
leaf_count=5899 204 5661 2955 1338 1694 4140 762 220 97 542 3571 1947 1063 1232
internal_value=0 0.00204223 0.00390543 0.00701249 0.00451753 -0.00313255 -0.00172972 0.00796165 0.0175542 0.0102864 0.000341977 0.00650955 0.00222126 0.00876317
internal_weight=0 1506.92 1075.65 574.624 326.106 899.747 587.478 194.641 25.5903 248.519 501.03 169.05 139.371 204.862
internal_count=31325 19461 13800 7274 4162 11864 7724 2468 317 3112 6526 2151 1825 2570
is_linear=0
shrinkage=0.01


Tree=6
num_leaves=15
num_cat=0
split_feature=21 21 2 5 23 13 5 0 23 2 15 5 2 2
split_gain=147.977 127.706 96.0082 45.4296 45.1797 55.5761 32.9412 31.2721 28.0123 24.3394 22.7465 21.4823 21.278 21.0265
threshold=5.8452551913836652 7.0717889755819305 5991.5000000000009 3.5000000000000004 0.63333333333333341 2016.5000000000002 3.5000000000000004 1.0000000180025095e-35 0.45000000000000007 11843.000000000002 1.7500000000000002 3.5000000000000004 6294.5000000000009 2805.5000000000005
decision_type=2 2 2 2 2 2 2 2 2 2 2 2 2 2
left_child=6 2 4 10 5 11 8 -6 -1 -4 12 -2 -3 -10
right_child=1 3 9 -5 7 -7 -8 -9 13 -11 -12 -13 -14 -15
leaf_value=-0.0029362551225362052 0.0099426334700847673 0.0068538364289993806 0.0017547203457230279 -0.0045369460471554081 0.0080522738848395319 -0.00057612995453651004 -0.0057417738412850541 0.016198983687621203 0.0067389292344569298 -0.0049380343084726962 -0.00047766021090258606 0.0026402715684463586 -0.0049464179794352454 -0.001119094457499878
leaf_weight=447.00207051634789 139.23970606923103 88.331373572349548 149.21506977081299 249.94834512472153 187.72474969923496 131.40151895582676 310.76597374677658 62.908650524914265 58.88614546507597 85.457354240119457 340.06916499882936 56.687146462500095 18.477326415479183 80.742658123373985
leaf_count=5899 1748 1145 1949 3305 2340 1694 4140 772 762 1122 4422 720 244 1063
internal_value=0 0.00201824 0.00471169 -0.00112284 0.00690191 0.00445539 -0.00310943 0.0100971 -0.00171495 -0.000682486 0.000786736 0.00782985 0.00481246 0.0021949
internal_weight=0 1509.46 812.634 696.826 577.962 327.328 897.397 250.633 586.631 234.672 446.878 195.927 106.809 139.629
internal_count=31325 19461 10345 9116 7274 4162 11864 3112 7724 3071 5811 2468 1389 1825
is_linear=0
shrinkage=0.01


Tree=7
num_leaves=15
num_cat=0
split_feature=21 2 21 23 13 5 0 23 5 15 5 2 5 2
split_gain=145.15 125.102 112.012 43.5019 53.9422 32.5738 29.7922 27.5109 21.8119 27.4243 20.7009 20.4738 20.0734 19.4544
threshold=5.8452551913836652 5991.5000000000009 7.0717889755819305 0.63333333333333341 2016.5000000000002 3.5000000000000004 1.0000000180025095e-35 0.45000000000000007 3.5000000000000004 1.7500000000000002 3.5000000000000004 2805.5000000000005 2.5000000000000004 11843.000000000002
decision_type=2 2 2 2 2 2 2 2 2 2 2 2 2 2
left_child=5 2 3 4 10 7 12 -1 9 -4 -2 -9 -5 -3
right_child=1 13 8 6 -6 -7 -8 11 -10 -11 -12 -13 -14 -15
leaf_value=-0.0029140642520513499 0.0097624303126448413 -0.00096351438795218465 0.0065277681041874692 0.01097269645768208 -0.00057064311144265688 -0.0057118761580937493 0.015824408915050655 0.0066341126105266338 -0.0030157371651281318 8.6684209865620025e-05 0.0026081356645943628 -0.0011089437577380976 0.0044405009723426552 -0.0053878928209503156
leaf_weight=445.90744867920876 140.38598100841045 273.61152417212725 87.082872807979584 100.62585335969925 131.33866073936224 309.27619232982397 63.749467335641384 59.216681733727455 139.57441955059767 274.37100763618946 56.811121456325054 80.667296811938286 88.347630761563778 156.07321432232857
leaf_count=5899 1748 3597 1122 1228 1694 4140 772 762 1848 3556 720 1063 1112 2064
internal_value=0 0.00199459 0.00380703 0.00679383 0.00439444 -0.00308642 0.009913 -0.00170028 0.000341938 0.0016385 0.00770133 0.0021689 0.00791881 -0.00257057
internal_weight=0 1511.97 1082.29 581.259 328.536 895.068 252.723 585.791 501.028 361.454 197.197 139.884 188.973 429.685
internal_count=31325 19461 13800 7274 4162 11864 3112 7724 6526 4678 2468 1825 2340 5661
is_linear=0
shrinkage=0.01


Tree=8
num_leaves=15
num_cat=0
split_feature=21 2 21 23 13 5 0 23 3 6 12 3 2 19
split_gain=142.377 122.282 108.79 41.9007 52.3652 32.2089 28.4017 27.0182 25.4842 30.2369 23.8432 21.4428 19.9378 19.5337
threshold=5.8452551913836652 5991.5000000000009 7.0717889755819305 0.63333333333333341 2016.5000000000002 3.5000000000000004 1.0000000180025095e-35 0.45000000000000007 756.50000000000011 2.5000000000000004 2.5000000000000004 599.50000000000011 2805.5000000000005 0.4642857142857143
decision_type=2 2 2 2 2 2 2 2 2 2 2 2 2 2
left_child=5 2 3 4 8 7 -5 -1 11 -10 -4 -2 -9 -12
right_child=1 -3 10 6 -6 -7 -8 12 9 -11 13 -13 -14 -15
leaf_value=-0.0028919911975281176 0.017043238892209905 -0.0025503759391428422 -0.0020670898379185824 0.007788508747596381 -0.00056520599138387109 -0.0056820189557202586 0.015463917378383015 0.0065315431725546614 0.023772282340021725 0.00039283808629395804 0.00071408390350338302 0.0050288093301627665 -0.001098876135389656 0.0067493133431132312
leaf_weight=444.82318585366011 16.421585641801357 428.76385311037302 226.13456592708826 190.20628428459167 131.27642341703176 307.79974898695946 64.578987896442413 59.543475747108459 18.39751981198788 7.9103528037667266 202.02575997263193 155.72281101346016 80.592675812542439 73.00946718454361
leaf_count=5899 204 5661 2955 2340 1694 4140 772 762 220 97 2624 1947 1063 947
internal_value=0 0.00197127 0.00375698 0.00668813 0.00433459 -0.00306354 0.00973395 -0.00168572 0.00757581 0.0167425 0.000338382 0.00617492 0.00214327 0.00231617
internal_weight=0 1514.45 1085.68 584.514 329.729 892.759 254.785 584.959 198.452 26.3079 501.17 172.144 140.136 275.035
internal_count=31325 19461 13800 7274 4162 11864 3112 7724 2468 317 6526 2151 1825 3571
is_linear=0
shrinkage=0.01


Tree=9
num_leaves=15
num_cat=0
split_feature=21 21 2 5 0 5 13 5 15 2 2 6 21 2
split_gain=139.658 119.715 87.7941 44.1216 37.991 31.8466 30.7 26.8327 21.6083 21.3984 20.1798 18.2713 18.2592 16.2323
threshold=5.8452551913836652 7.0717889755819305 7680.5000000000009 3.5000000000000004 1.0000000180025095e-35 3.5000000000000004 2017.5000000000002 2.5000000000000004 1.7500000000000002 1888.5000000000002 6294.5000000000009 4.5000000000000009 7.3474811633713033 3065.5000000000005
decision_type=2 2 2 2 2 2 2 2 2 2 2 2 2 2
left_child=5 2 4 8 7 11 9 -2 10 -6 12 13 -3 -1
right_child=1 3 -4 -5 6 -7 -8 -9 -10 -11 -12 -13 -14 -15
leaf_value=0.0011404926438387606 0.0070241461194869154 -0.0010054550505008758 -0.002105506515099827 -0.0044853676097060943 0.018908765396040941 -0.0056522028632723532 0.0027077817517354602 0.0023359820150634955 -0.00046563162969760411 0.0099833331386104326 -0.0048860115007038863 -0.0054536887874850363 0.0093092141311015425 -0.0025504820891050512
leaf_weight=221.57697294652462 248.30997458845377 23.168791115283966 160.29707413166761 248.22406073659658 37.76570263504982 306.336560793221 41.709734246134758 240.16232844442129 339.7133104801178 93.026285797357559 18.319669798016548 104.79842168837786 66.197045348584652 257.75911673903465
leaf_count=2901 3065 297 2113 3305 453 4140 524 3042 4422 1148 244 1393 848 3430
internal_value=0 0.00194826 0.00453374 -0.00110422 0.00614387 -0.00304077 0.0101782 0.00471916 0.000771696 0.0125605 0.00467507 -0.00167126 0.00663506 -0.000844299
internal_weight=0 1516.89 821.271 695.623 660.974 890.471 172.502 488.472 447.399 130.792 107.686 584.135 89.3658 479.336
internal_count=31325 19461 10345 9116 8232 11864 2125 6107 5811 1601 1389 7724 1145 6331
is_linear=0
shrinkage=0.01


Tree=10
num_leaves=15
num_cat=0
split_feature=21 2 21 12 12 4 6 0 4 21 16 17 4 17
split_gain=140.663 113.803 81.7144 31.6203 21.4299 21.2665 21.2512 18.355 20.9137 19.796 15.1109 14.4003 18.9309 14.0444
threshold=5.6702558190868846 6114.5000000000009 7.0717889755819305 2.5000000000000004 2.5000000000000004 2.5000000000000004 3.5000000000000004 1.0000000180025095e-35 1.5000000000000002 6.4434286657567688 2.8750000000000004 5.7321428571428585 2.5000000000000004 6.2250000000000005
decision_type=2 2 2 2 2 2 2 2 2 2 2 2 2 2
left_child=5 2 3 7 -4 6 10 -2 9 -9 -1 12 -5 -11
right_child=1 -3 4 11 -6 -7 -8 8 -10 13 -12 -13 -14 -15
leaf_value=-0.00020601234907766626 0.00162496358196481 -0.0027260499779875806 -0.0021760111223786483 0.0097411260349805125 0.0019582776518567054 -0.0060623261316807495 -0.0052886938610133818 0.006314465872652949 0.0032674576993877063 0.026950283495518521 -0.0063510365405035308 0.004094994456922854 0.0030573268320107979 -0.0013355417215740279
leaf_weight=296.66043404489756 235.11798489093781 452.91563208401203 227.85920248180628 226.85293938219547 278.76424380391836 245.25866650789976 178.62128641456366 16.175089322030548 51.238680504262447 11.587235443294047 46.256506510078907 101.57717837393284 52.110930941998959 2.06875155866146
leaf_count=3948 2935 6006 2983 2803 3615 3320 2387 197 632 138 616 1265 658 25
internal_value=0 0.00154662 0.00315476 0.00537686 9.8838e-05 -0.00363382 -0.00249179 0.00303975 0.00714291 0.0137995 -0.00103492 0.00731874 0.00849258 0.0226653
internal_weight=0 1656.27 1203.35 696.729 506.623 766.797 521.538 316.188 81.0698 29.8311 342.917 380.541 278.964 13.656
internal_count=31528 21257 15251 8653 6598 10271 6951 3927 992 360 4564 4726 3461 163
is_linear=0
shrinkage=0.01


Tree=11
num_leaves=15
num_cat=0
split_feature=23 2 21 21 4 21 12 4 2 21 4 17 17 6
split_gain=149.573 98.8627 57.2772 46.0125 39.3312 29.0103 22.3704 20.5579 20.4496 18.9617 17.3577 16.62 14.2065 13.6718
threshold=0.63333333333333341 5448.5000000000009 5.622432112478994 7.1136814478742769 2.5000000000000004 7.1698368861438881 2.5000000000000004 1.5000000000000002 11572.000000000002 7.0992729161423762 2.5000000000000004 6.5357142857142865 5.6904761904761916 3.5000000000000004
decision_type=2 2 2 2 2 2 2 2 2 2 2 2 2 2
left_child=2 3 7 6 5 8 -2 13 12 -3 11 -8 -4 -1
right_child=1 9 4 -5 -6 -7 10 -9 -10 -11 -12 -13 -14 -15
leaf_value=0.00072030110859449452 0.0054276479746602378 0.0007358530732376029 0.004342144548180835 0.0025308803989637857 -0.0032374881053029211 -0.0018889737032540858 0.013553857790371191 -0.0051551913386665331 -0.0070132184288965362 -0.0046306603230554903 0.0039472880386222792 0.00256493989877422 8.0831011511114435e-05 -0.0048360948641861939
leaf_weight=122.27961532771587 141.90647085756063 151.15143784880638 290.96475891768932 241.54642130434513 297.39864125847816 206.26153186708689 122.56891264766455 489.35429762303829 20.635913372039795 116.65433526039124 30.17186089605093 15.504260182380674 107.00743438303471 69.42576640099287
leaf_count=1626 1733 1983 3673 3121 3915 2707 1482 6603 275 1557 376 191 1357 929
internal_value=0 0.00338342 -0.0018683 0.00580334 -0.000244084 0.00118059 0.00835193 -0.00406776 0.00269306 -0.00160176 0.0108184 0.0123199 0.00319636 -0.00129194
internal_weight=0 819.504 1603.33 551.698 922.268 624.87 310.152 681.06 418.608 267.806 168.245 138.073 397.972 191.705
internal_count=31528 10443 21085 6903 11927 8012 3782 9158 5305 3540 2049 1673 5030 2555
is_linear=0
shrinkage=0.01


Tree=12
num_leaves=15
num_cat=0
split_feature=23 4 21 13 4 0 13 13 21 4 21 21 21 17
split_gain=146.423 83.3227 56.4301 50.8578 51.407 48.1516 26.6802 22.9482 20.6311 20.3282 19.7973 18.5826 18.5504 18.3488
threshold=0.63333333333333341 2.5000000000000004 5.622432112478994 2016.5000000000002 2.5000000000000004 1.0000000180025095e-35 2016.5000000000002 2016.5000000000002 7.1784075574905941 1.5000000000000002 7.0992729161423762 7.1698368861438881 7.1136814478742769 6.1833333333333345
decision_type=2 2 2 2 2 2 2 2 2 2 2 2 2 2
left_child=2 5 9 4 11 6 12 -3 -7 -1 -9 13 -2 -4
right_child=1 7 3 -5 -6 8 -8 10 -10 -11 -12 -13 -14 -15
leaf_value=-0.0012804380268689177 0.0043546741566746709 -0.0030383478867443419 0.0066650539888730674 -0.0030271989188982397 -0.0027209987104399903 0.013645619565223029 0.0078012070290775504 0.0078764495848488922 0.005918126743892479 -0.0051258765565492552 -0.0021097483588853041 0.00056998972324066681 -0.00079910994761644614 -0.00051278849212128168
leaf_weight=191.49838180840015 164.30040442198515 193.12422485649586 205.30099504441023 383.12782204896212 174.70712950080633 86.364238984882832 118.88126918673515 43.600818671286106 57.587593659758568 487.24199283123016 36.446733735501766 115.84843907505274 121.47530688345432 43.088542528450489
leaf_count=2555 2021 2533 2558 5016 2296 1035 1495 561 743 6603 486 1515 1569 542
internal_value=0 0.00334015 -0.00185259 -0.000241741 0.0017384 0.00558709 0.00382007 -0.00117235 0.0105543 -0.00404093 0.0033296 0.00387735 0.00216394 0.0054199
internal_weight=0 821.781 1600.81 922.073 538.945 548.609 404.657 273.172 143.952 678.74 80.0476 364.238 285.776 248.39
internal_count=31528 10443 21085 11927 6911 6863 5085 3580 1778 9158 1047 4615 3590 3100
is_linear=0
shrinkage=0.01


Tree=13
num_leaves=15
num_cat=0
split_feature=23 2 4 13 6 13 12 0 3 13 0 3 2 17
split_gain=143.342 94.9947 52.2832 48.7053 53.68 33.0429 32.4825 26.415 24.8344 22.8011 26.8769 17.5653 15.6036 14.7012
threshold=0.63333333333333341 5448.5000000000009 2.5000000000000004 2016.5000000000002 3.5000000000000004 2016.5000000000002 2.5000000000000004 1.0000000180025095e-35 755.50000000000011 2017.5000000000002 1.0000000180025095e-35 692.50000000000011 4648.5000000000009 6.5857142857142863
decision_type=2 2 2 2 2 2 2 2 2 2 2 2 2 2
left_child=2 6 3 4 7 -3 -2 11 -9 10 13 -1 -12 -8
right_child=1 5 -4 -5 -6 -7 9 8 -10 -11 12 -13 -14 -15
leaf_value=-0.00028533037455490107 0.0030152677463084789 -0.0038438745897220604 -0.0044769777634771192 -0.0031278060757713444 -0.0047442413056128317 0.0038972683693243512 0.0056494825807907427 0.0045295586504711166 0.01634572219436007 0.013590566580198487 0.013914046326250063 0.0043506723326661913 -0.002143960665057195 -0.0031200040191187539
leaf_weight=254.77570124715567 253.88247563689947 190.00019338726997 510.54589276015759 447.74766658246517 123.72006669640541 77.685218371450901 161.24306521564722 120.33243581652641 20.872091196477413 56.572129771113396 56.18474630266428 120.32583652436733 6.7815895006060591 21.687500610947609
leaf_count=3303 3166 2519 6862 5915 1655 1021 2003 1553 262 698 681 1535 83 272
internal_value=0 0.00329753 -0.00183699 -0.000597919 0.00117193 -0.00159731 0.00565266 0.0025896 0.00627616 0.00786639 0.00654946 0.00120182 0.0121846 0.00460981
internal_weight=0 824.037 1598.32 1087.77 640.026 267.685 556.352 516.306 141.205 302.469 245.897 375.102 62.9663 182.931
internal_count=31528 10443 21085 14223 8308 3540 6903 6653 1815 3737 3039 4838 764 2275
is_linear=0
shrinkage=0.01


Tree=14
num_leaves=15
num_cat=0
split_feature=21 2 21 5 5 21 12 12 6 17 3 16 2 5
split_gain=132.434 106.376 76.8503 40.0622 25.5987 23.3078 20.7404 17.7856 17.5064 16.5406 17.6985 15.3155 19.6247 18.5555
threshold=5.6702558190868846 6114.5000000000009 7.0717889755819305 2.5000000000000004 3.5000000000000004 5.9157778652611341 2.5000000000000004 2.5000000000000004 3.5000000000000004 6.2678571428571432 768.50000000000011 2.6333333333333337 4612.5000000000009 1.5000000000000002
decision_type=2 2 2 2 2 2 2 2 2 2 2 2 2 2
left_child=4 2 3 5 8 -2 -4 -5 -1 10 11 -7 -13 -14
right_child=1 -3 6 7 -6 9 -8 -9 -10 -11 -12 12 13 -15
leaf_value=-0.00089957719540441708 0.001918884707212858 -0.0026630839219856334 -0.002175450325961472 8.0683447698826606e-05 -0.0061031285334192222 0.010102177502593906 0.0018872458055452037 0.0047518216267157303 -0.0048608642785881121 0.003206956132749952 0.018205965516460247 0.0012838308574091889 0.0010525179762904508 0.029082651210133953
leaf_weight=332.31808993965387 64.485294848680496 449.84102980047464 227.84091207385063 150.31199814379215 258.875020429492 187.05118837952614 280.18037051707506 178.08699934184551 167.94617552310228 49.296417839825153 21.533238813281059 44.729022160172462 4.14615251123905 5.4873254522681236
leaf_count=4430 814 6006 2983 1880 3570 2241 3615 2213 2271 601 251 537 50 66
internal_value=0 0.00149031 0.00303041 0.00516676 -0.00355041 0.00739223 6.51796e-05 0.00261379 -0.00222944 0.00852259 0.00951915 0.00874432 0.00407219 0.0170188
internal_weight=0 1662.99 1213.15 705.128 759.139 376.729 508.021 328.399 500.264 312.243 262.947 241.414 54.3625 9.63348
internal_count=31528 21257 15251 8653 10271 4560 6598 4093 6701 3746 3145 2894 653 116
is_linear=0
shrinkage=0.01


Tree=15
num_leaves=15
num_cat=0
split_feature=21 2 21 5 2 21 23 1 21 2 17 2 16 20
split_gain=125.481 112.045 89.711 42.1756 25.2551 24.522 23.8075 17.2852 17.1501 20.6805 16.5441 18.7987 19.6725 20.0181
threshold=5.6702558190868846 5847.5000000000009 7.0717889755819305 2.5000000000000004 2293.5000000000005 5.9157778652611341 0.77500000000000013 1.0000000180025095e-35 7.0717889755819305 11843.000000000002 6.2250000000000005 913.50000000000011 2.183333333333334 2.166666666666667
decision_type=2 2 2 2 2 2 2 2 2 2 2 2 2 2
left_child=4 2 3 5 -1 -2 -4 -5 9 -3 11 12 13 -7
right_child=1 8 6 7 -6 10 -8 -9 -10 -11 -12 -13 -14 -15
leaf_value=-0.0004346352063551663 0.0020362153527179665 0.0010254805624088468 -0.0024123741904260193 0.0016262616017116934 -0.0045662734481881125 0.0182486087991292 0.0019778660355037072 0.0076268082668104519 -0.0048277262341131699 -0.0046839363518596982 0.0037443930081501402 0.0092241479594474731 0.014074131983874801 0.063440862726899111
leaf_weight=201.84544467180967 63.113670967519283 178.53985000401735 239.04553476721048 256.5238151550293 554.03989619761705 2.0483393594622603 255.58661459386349 59.057529784739017 203.3490047082305 98.411491878330708 52.235841363668442 241.46396407485008 11.939163222908972 1.8795362487435343
leaf_count=2696 794 2348 3144 3201 7561 24 3275 718 2745 1321 635 2865 139 22
internal_value=0 0.00145078 0.00310467 0.00543928 -0.00346299 0.00771722 -0.000143847 0.0027492 -0.00262248 -0.0010033 0.00887544 0.009917 0.0204608 0.0398737
internal_weight=0 1663.19 1182.89 688.262 755.885 372.681 494.632 315.581 480.3 276.951 309.567 257.331 15.867 3.92788
internal_count=31488 21231 14817 8398 10257 4479 6419 3919 6414 3669 3685 3050 185 46
is_linear=0
shrinkage=0.01


Tree=16
num_leaves=15
num_cat=0
split_feature=21 2 21 23 13 2 12 23 17 21 2 13 13 22
split_gain=123.201 109.641 87.3182 35.4999 37.826 24.9304 23.646 23.3452 17.3077 16.929 20.349 16.0573 15.2055 25.1709
threshold=5.6702558190868846 5847.5000000000009 7.0717889755819305 0.63333333333333341 2016.5000000000002 2293.5000000000005 2.5000000000000004 0.77500000000000013 6.9285714285714297 7.0717889755819305 11843.000000000002 2016.5000000000002 2017.5000000000002 71.816666666666677
decision_type=2 2 2 2 2 2 2 2 2 2 2 2 2 2
left_child=5 2 3 4 -2 -1 -5 11 12 10 -3 -4 -8 -14
right_child=1 9 7 6 -6 -7 8 -9 -10 -11 -12 -13 13 -15
leaf_value=-0.00043044629239060459 0.0059782626935871398 0.0010143534866584967 -0.0001522070024715848 0.0048921304447152262 -0.00027512722660930636 -0.0045380928857278995 0.01009690169327993 0.001954862865900615 -9.9305105580658825e-05 -0.0047989497454670287 -0.0046554301666524665 -0.0053967307929813002 0.030116439001814301 0.010390790493578262
leaf_weight=201.77203857153654 237.44355523586273 178.6926139369607 136.63093549013138 131.89760605245829 163.22384662926197 551.91624822467566 118.22565844655037 256.00607138127089 13.754815042018889 202.52682700753212 98.025886729359627 101.93397203087807 10.930350102484228 15.848988905549048
leaf_count=2696 2893 2348 1786 1562 2088 7561 1379 3275 166 2745 1321 1358 127 183
internal_value=0 0.00143448 0.00306571 0.00536082 0.00343076 -0.00343842 0.00802138 -0.000142446 0.0106212 -0.00260203 -0.000994134 -0.00239309 0.0116381 0.0184421
internal_weight=0 1665.14 1185.9 691.325 400.667 753.688 290.657 494.571 158.76 479.245 276.719 238.565 145.005 26.7793
internal_count=31488 21231 14817 8398 4981 10257 3417 6419 1855 6414 3669 3144 1689 310
is_linear=0
shrinkage=0.01


Tree=17
num_leaves=15
num_cat=0
split_feature=21 2 21 5 2 21 23 1 13 17 0 2 3 2
split_gain=120.961 107.314 87.5454 44.7021 24.6088 23.9875 23.4779 16.3019 16.2643 15.598 25.712 17.4702 17.4461 15.5605
threshold=5.6702558190868846 5991.5000000000009 7.0717889755819305 2.5000000000000004 2293.5000000000005 5.9157778652611341 0.77500000000000013 1.0000000180025095e-35 2016.5000000000002 6.2250000000000005 1.0000000180025095e-35 913.50000000000011 759.50000000000011 4189.5000000000009
decision_type=2 2 2 2 2 2 2 2 2 2 2 2 2 2
left_child=4 2 3 5 -1 -2 8 -5 -4 10 11 12 -7 -13
right_child=1 -3 6 7 -6 9 -8 -9 -10 -11 -12 13 -14 -15
leaf_value=-0.00042629601592420938 0.0020200756297281994 -0.0026901782567634752 -0.00021286717985339641 0.0014400412700498082 -0.0045099926500449033 0.011516719497757167 0.001876654774426651 0.0072018948579251028 -0.0054586401177753787 0.0037739711929651869 0.014864988715870431 0.0055585355997875363 0.042326590324812285 0.012341430893500567
leaf_weight=201.69935747236013 64.703746125102043 460.22590367496014 138.34498126059771 262.65472096204758 549.81210156530142 5.317596994340418 259.88494605571032 60.394338920712471 103.18788747489452 53.458121456205845 70.559268243610859 141.02671328186989 2.8085983097553253 44.491801865398884
leaf_count=2696 810 6183 1809 3260 7561 62 3321 727 1381 646 811 1664 32 525
internal_value=0 0.00141838 0.00298519 0.00525594 -0.00341396 0.0075698 -0.000209407 0.00251723 -0.00245397 0.00870021 0.00969697 0.00781387 0.0221653 0.00718524
internal_weight=0 1667.06 1206.83 705.415 751.511 382.366 501.418 323.049 241.533 317.662 264.204 193.645 8.1262 185.519
internal_count=31488 21231 15048 8537 10257 4550 6511 3987 3190 3740 3094 2283 94 2189
is_linear=0
shrinkage=0.01


Tree=18
num_leaves=15
num_cat=0
split_feature=21 2 21 5 0 17 2 12 21 2 21 17 22 13
split_gain=118.761 105.061 82.7425 39.6254 25.3802 26.0447 24.2903 16.9198 16.7269 20.03 15.7992 17.0364 16.2961 14.8574
threshold=5.6702558190868846 5847.5000000000009 7.0717889755819305 3.5000000000000004 1.0000000180025095e-35 6.9285714285714297 2293.5000000000005 2.5000000000000004 7.0717889755819305 11843.000000000002 5.8452551913836652 4.7750000000000012 63.550000000000004 2016.5000000000002
decision_type=2 2 2 2 2 2 2 2 2 2 2 2 2 2
left_child=6 2 3 4 7 10 -1 13 9 -3 11 12 -6 -2
right_child=1 8 -4 -5 5 -7 -8 -9 -10 -11 -12 -13 -14 -15
leaf_value=-0.00042218458711994319 0.0052793941412946086 0.0010268186593320044 -0.00013907218866871001 0.0013466140403308919 0.037099091874273127 -0.0036122998922501317 -0.0044819731347148159 0.007285407754643515 -0.0047545711785739932 -0.0046105294915565025 0.013099592574668362 -0.00737885835175244 0.0044944242943359405 -0.00085137665788165089
leaf_weight=201.62740004807711 105.51173387467861 178.5205237492919 494.42123182862997 192.35674861818552 2.0806106552481678 12.160703822970389 547.72730925679207 199.38278975337744 201.26943456381559 97.423561781644821 108.39741542935371 8.3963156864047033 5.8235474452376366 63.209227353334427
leaf_count=2696 1256 2348 6419 2384 26 146 7561 2379 2745 1321 1246 106 73 782
internal_value=0 0.0014025 0.00299018 0.00520892 0.0066802 0.010357 -0.00338961 0.0053132 -0.00256241 -0.000963478 0.0117193 0.00254024 0.0130769 0.00298258
internal_weight=0 1668.95 1191.74 697.319 504.962 136.859 749.355 368.104 477.214 275.944 124.698 16.3005 7.90416 168.721
internal_count=31488 21231 14817 8398 6014 1597 10257 4417 6414 3669 1451 205 99 2038
is_linear=0
shrinkage=0.01


Tree=19
num_leaves=15
num_cat=0
split_feature=21 2 21 5 2 23 21 13 1 6 13 17 0 2
split_gain=116.601 102.826 83.0162 42.353 23.975 23.0298 22.809 16.0521 15.6099 15.1358 23.4402 14.7472 23.3824 16.5103
threshold=5.6702558190868846 5991.5000000000009 7.0717889755819305 2.5000000000000004 2293.5000000000005 0.77500000000000013 5.9157778652611341 2016.5000000000002 1.0000000180025095e-35 2.5000000000000004 2016.5000000000002 6.2250000000000005 1.0000000180025095e-35 913.50000000000011
decision_type=2 2 2 2 2 2 2 2 2 2 2 2 2 2
left_child=4 2 3 6 9 7 -2 -4 -5 10 -1 12 13 -8
right_child=1 -3 5 8 -6 -7 11 -9 -10 -11 -12 -13 -14 -15
leaf_value=0.0081268589459526537 0.0019431266928971731 -0.0026490354647991298 -0.0002088432385248227 0.0013898029677139538 -0.004454035106908975 0.001857300685837805 0.021392787292499757 -0.0054277717986464099 0.0070026108832109291 -0.0024044347340353993 -0.0037243472936869825 0.0036598949381543605 0.014261212846518618 0.0069896817909265371
leaf_weight=41.513755947351456 65.05657184869051 458.18060264736414 138.29775682836771 263.62674870342016 545.66171690821648 260.24602066725492 8.3117128834128362 102.69855775684118 61.018270373344421 132.13312272727489 27.909280501306057 53.841244295239449 72.155024625360966 187.39583584666252
leaf_count=547 810 6183 1809 3260 7561 3321 94 1381 727 1777 372 646 811 2189
internal_value=0 0.00138681 0.00291169 0.00510793 -0.00336538 -0.000205393 0.00734339 -0.00243285 0.00244475 -0.000418111 0.00336247 0.00843546 0.00939536 0.00760138
internal_weight=0 1670.83 1212.65 711.405 747.218 501.242 386.76 240.996 324.645 201.556 69.423 321.704 267.863 195.708
internal_count=31488 21231 15048 8537 10257 6511 4550 3190 3987 2696 919 3740 3094 2283
is_linear=0
shrinkage=0.01


Tree=20
num_leaves=15
num_cat=0
split_feature=21 5 21 21 23 13 23 3 4 6 20 16 3 4
split_gain=123.182 91.2321 49.3399 41.6252 34.0466 34.0413 21.146 19.9761 19.8265 19.7803 19.4245 18.7937 17.6702 16.1563
threshold=5.622432112478994 3.5000000000000004 7.0717889755819305 7.0992729161423762 0.63333333333333341 2016.5000000000002 0.77500000000000013 682.50000000000011 1.5000000000000002 2.5000000000000004 2.166666666666667 2.7083333333333335 587.50000000000011 2.5000000000000004
decision_type=2 2 2 2 2 2 2 2 2 2 2 2 2 2
left_child=8 2 4 -3 5 11 -4 -8 9 -1 -7 13 -6 -2
right_child=1 3 6 -5 12 10 7 -9 -10 -11 -12 -13 -14 -15
leaf_value=0.0038248304418762296 0.0080239025660264161 0.00053927927693173735 -0.0015173613530348334 -0.0048241462510692354 0.0022429115364138693 -0.0033103722580851242 0.00063240724809114678 0.0067413645286282424 -0.0044877181680147704 -0.0029308679510424858 0.0039002757294718808 -0.0010268460027258429 0.0088961980980274049 -0.00048757713283847822
leaf_weight=63.886190518736839 161.77486541867256 365.25914154946804 219.65204893052578 239.63511876016855 48.604174219071865 95.694858990609646 150.53846779465675 83.062014728784561 504.68297789245844 134.76354895532131 61.285691827535629 36.115619227290154 223.36418738216162 25.867333717644215
leaf_count=853 1943 4702 2913 3241 630 1222 1944 1043 7007 1830 776 441 2567 335
internal_value=0 0.00153697 0.00324477 -0.0015855 0.00500488 0.00307459 0.000710115 0.00280459 -0.00343436 -0.000758221 -0.000495313 0.0055791 0.00770717 0.00685056
internal_weight=0 1710.85 1105.96 604.894 652.707 380.738 453.253 233.6 703.333 198.65 156.981 223.758 271.968 187.642
internal_count=31447 21757 13814 7943 7914 4717 5900 2987 9690 2683 1998 2719 3197 2278
is_linear=0
shrinkage=0.01


Tree=21
num_leaves=15
num_cat=0
split_feature=21 2 21 23 13 12 4 16 12 19 2 21 21 18
split_gain=120.916 103.058 72.9728 38.6722 38.5284 24.3998 19.5753 18.4797 18.4433 17.7441 15.4122 17.3272 14.8178 17.0922
threshold=5.622432112478994 6415.5000000000009 7.0717889755819305 0.63333333333333341 2016.5000000000002 2.5000000000000004 1.5000000000000002 2.8750000000000004 2.5000000000000004 0.4642857142857143 13726.000000000002 7.0992729161423762 6.6337739111826801 2.1547619047619051
decision_type=2 2 2 2 2 2 2 2 2 2 2 2 2 2
left_child=6 2 3 4 7 -4 -1 -2 -5 -7 11 -3 -10 -14
right_child=1 10 5 8 -6 9 -8 -9 12 -11 -12 -13 13 -15
leaf_value=-0.00075116151825511816 0.006460504693980235 0.00060899894116362308 -0.0023804341780550541 0.0048227493414007942 -0.00051169355762755863 0.00048429664949697861 -0.0044597851659049685 -0.0013238796922499792 0.0075758785274723638 0.0060824324255647636 -0.0054754560545879939 -0.004479274466166935 0.0095631211888540443 0.020420322026801569
leaf_weight=198.52307953685522 230.64813364297152 167.78597586601973 232.2558690533042 139.87174180150032 185.02885004878044 213.88547690212727 502.7751232534647 35.142716035246849 116.95921305567026 77.004316635429859 141.13228464871645 111.33136095106602 38.751335747539997 23.169183276593685
leaf_count=2683 2775 2229 3054 1634 2354 2767 7007 427 1354 991 1935 1532 442 263
internal_value=0 0.00151962 0.00291814 0.00487706 0.00299211 3.64865e-05 -0.00340995 0.00543126 0.007543 0.00196623 -0.00278231 -0.00142056 0.00967004 0.0136256
internal_weight=0 1712.97 1292.72 769.571 450.82 523.146 701.298 265.791 318.751 290.89 420.25 279.117 178.88 61.9205
internal_count=31447 21757 16061 9249 5556 6812 9690 3202 3693 3758 5696 3761 2059 705
is_linear=0
shrinkage=0.01


Tree=22
num_leaves=15
num_cat=0
split_feature=23 5 21 13 4 21 3 13 21 13 4 20 4 21
split_gain=119.111 66.1807 54.1674 46.3739 46.8467 36.7177 34.3852 30.0382 21.3321 24.5267 22.6523 20.2691 19.4671 19.1225
threshold=0.63333333333333341 3.5000000000000004 5.622432112478994 2016.5000000000002 2.5000000000000004 7.0992729161423762 587.50000000000011 2016.5000000000002 7.5816847461839032 2016.5000000000002 1.5000000000000002 2.166666666666667 1.5000000000000002 7.1698368861438881
decision_type=2 2 2 2 2 2 2 2 2 2 2 2 2 2
left_child=2 6 12 4 13 7 -2 -3 9 10 -8 -11 -1 -4
right_child=1 5 3 -5 -6 -7 8 -9 -10 11 -12 -13 -14 -15
leaf_value=-0.00098174807286792692 -9.1911665272850163e-05 -0.00033408988492666762 0.0054652536112685815 -0.0026301150346879141 -0.0023877801485273839 -0.0046969977322127302 0.009421158733440212 0.0089985357836605238 0.0022310436840543468 0.016204955791319399 0.0032663055876108573 0.0071988007138699683 -0.0048029581633641143 0.0005835687419827461
leaf_weight=186.03192611038685 98.989709608256817 115.91926111280918 253.11626955121756 383.10321282595396 172.75049098581076 127.84147427231073 103.99888203293085 49.094152830541134 94.802747845649719 50.641044870018959 140.68942873924971 49.333664625883102 470.52931381762028 117.48842985183001
leaf_count=2522 1310 1479 3055 5047 2293 1727 1209 616 1193 595 1685 580 6594 1542
internal_value=0 0.00315176 -0.00152289 3.43366e-05 0.00191296 -0.000674133 0.00523259 0.00244252 0.00643193 0.00758742 0.00588228 0.0117608 -0.00372025 0.00391767
internal_weight=0 831.31 1583.02 926.458 543.355 292.855 538.455 165.013 439.466 344.663 244.688 99.9747 656.561 370.605
internal_count=31447 10394 21053 11937 6890 3822 6572 2095 5262 4069 2894 1175 9116 4597
is_linear=0
shrinkage=0.01


Tree=23
num_leaves=15
num_cat=0
split_feature=21 2 21 23 13 12 6 2 16 12 19 2 21 17
split_gain=116.631 99.7196 70.0431 36.2285 36.4935 23.9219 19.7689 21.3263 17.8822 17.6952 17.2713 15.2447 16.9388 14.4356
threshold=5.622432112478994 6415.5000000000009 7.0717889755819305 0.63333333333333341 2016.5000000000002 2.5000000000000004 3.5000000000000004 9881.5000000000018 2.8750000000000004 2.5000000000000004 0.4642857142857143 13726.000000000002 7.0992729161423762 6.0714285714285721
decision_type=2 2 2 2 2 2 2 2 2 2 2 2 2 2
left_child=6 2 3 4 8 -4 7 -1 13 -5 -7 12 -3 -2
right_child=1 11 5 9 -6 10 -8 -9 -10 -11 -12 -13 -14 -15
leaf_value=-0.0013160295295932328 0.0074001584089339332 0.00060121039882008852 -0.0023668903578292896 0.0046726938028801689 -0.00048156738767153254 0.00047288950290716463 -0.0056724160141048878 -0.0078501989229061292 -0.0013440148773242293 0.0093960906883857522 0.0059843105915579021 -0.0054421413635796856 -0.0044376331802137162 0.00064579798987692038
leaf_weight=398.27574563026428 194.82263512909412 167.88880764693022 231.92317575961351 141.10206593573093 184.54813545942307 214.07625409960747 242.01265162974596 57.112697601318359 35.207240022718906 181.12260431796312 77.422021679580212 140.39983768761158 110.70680042356253 37.77773942053318
leaf_count=5484 2317 2229 3054 1634 2354 2767 3396 810 427 2059 991 1935 1532 458
internal_value=0 0.00148649 0.0028557 0.00476528 0.00294 2.98328e-05 -0.00336289 -0.00213551 0.00529782 0.00732772 0.00193672 -0.0027552 -0.0014011 0.00630315
internal_weight=0 1717 1298 774.58 452.356 523.421 697.401 455.388 267.808 322.225 291.498 418.995 278.596 232.6
internal_count=31447 21757 16061 9249 5556 6812 9690 6294 3202 3693 3758 5696 3761 2775
is_linear=0
shrinkage=0.01


Tree=24
num_leaves=15
num_cat=0
split_feature=23 2 2 21 13 21 13 21 5 12 5 21 6 11
split_gain=114.989 70.9502 55.8097 54.2609 63.9153 45.3401 37.8755 28.8137 26.3676 22.8624 16.0533 16.0086 15.4833 13.858
threshold=0.63333333333333341 6051.5000000000009 7298.5000000000009 5.7446869558606624 2016.5000000000002 7.1136814478742769 2016.5000000000002 7.1698368861438881 3.5000000000000004 2.5000000000000004 3.5000000000000004 7.0717889755819305 4.5000000000000009 1.5000000000000002
decision_type=2 2 2 2 2 2 2 2 2 2 2 2 2 2
left_child=2 5 3 12 7 9 -3 10 13 -2 -5 -6 -1 -7
right_child=1 6 -4 4 11 8 -8 -9 -10 -11 -12 -13 -14 -15
leaf_value=-0.0019859275365686256 0.0043547529273305352 -0.0043429803400526993 -0.0053320060478372127 0.0074121504916844 -0.00036240302962856666 0.015470609006785744 0.0046894909013416378 0.00013437683055171225 -0.003429019787126258 0.0095060936087717381 0.002125278752481741 -0.0052020648639130264 -0.0059934172438283074 0.0030501764592875758
leaf_weight=462.16083028167486 155.13775196671486 159.45743086189032 306.56602182239294 185.25063488632441 169.14996136724949 9.4573527202010137 65.491280645132065 136.79842891544104 72.323043562471867 193.75864635407925 83.241231448948383 114.6896498799324 121.82232210040092 179.14424212276936
leaf_count=6363 1813 2178 4273 2163 2147 118 878 1801 959 2207 1036 1559 1711 2241
internal_value=0 0.00308685 -0.00150163 -0.000579269 0.0013212 0.00485751 -0.00171328 0.00386982 0.00170446 0.00721554 0.00577305 -0.00231794 -0.00282191 0.00367299
internal_weight=0 834.77 1579.68 1273.11 689.13 609.821 224.949 405.29 260.925 348.896 268.492 283.84 583.983 188.602
internal_count=31447 10394 21053 16780 8706 7338 3056 5000 3318 4020 3199 3706 8074 2359
is_linear=0
shrinkage=0.01


Tree=25
num_leaves=15
num_cat=0
split_feature=21 2 21 5 0 5 12 6 13 13 12 21 17 2
split_gain=112.962 93.8154 79.5792 30.9225 28.8811 25.3585 22.5089 19.0858 18.5781 15.4401 14.8426 14.7767 14.4811 14.143
threshold=5.8452551913836652 7680.5000000000009 7.0717889755819305 3.5000000000000004 1.0000000180025095e-35 3.5000000000000004 2.5000000000000004 4.5000000000000009 2017.5000000000002 2016.5000000000002 2.5000000000000004 6.0617006560749909 6.7321428571428585 3230.5000000000005
decision_type=2 2 2 2 2 2 2 2 2 2 2 2 2 2
left_child=3 2 4 7 6 10 -2 13 11 -3 -4 -6 -13 -1
right_child=1 9 5 -5 8 -7 -8 -9 -10 -11 -12 12 -14 -15
leaf_value=0.001149628631304735 0.0015358564150386165 -0.0050867827738154524 -0.00072634330894660848 -0.0054366489187503133 0.017504922239204714 -0.0031943600541217247 0.0057397508528049682 -0.0053861714682834306 0.002893228741513969 -0.0002113797341727085 0.0031829441870323306 0.0098984871989207576 -0.0024329053353798796 -0.0023217698838226028
leaf_weight=233.98993401229382 226.2103226557374 190.57019726186991 173.74918869882822 292.9503833130002 23.442179940640926 166.66031665354967 291.47777906060219 100.86020377278328 45.24592949450016 98.548574931919575 220.21777179092169 109.02221386879683 10.434537537395952 235.4698579236865
leaf_count=3092 2707 2618 2269 4146 269 2255 3445 1413 539 1345 2811 1225 121 3242
internal_value=0 0.00171487 0.00288823 -0.00279591 0.00512227 7.55694e-05 0.00390281 -0.00143946 0.00847767 -0.00342496 0.00145885 0.0102459 0.00882134 -0.000591542
internal_weight=0 1555.58 1266.46 863.27 705.833 560.627 517.688 570.32 188.145 289.119 393.967 142.899 119.457 469.46
internal_count=31497 19604 15641 11893 8306 7335 6152 7747 2154 3963 5080 1615 1346 6334
is_linear=0
shrinkage=0.01


Tree=26
num_leaves=15
num_cat=0
split_feature=23 2 2 13 21 21 13 0 13 21 21 2 5 22
split_gain=135.386 75.6589 46.3703 41.5327 52.9703 38.633 34.4114 24.4138 24.9992 18.6039 18.3688 17.9708 17.1791 17.0364
threshold=0.63333333333333341 5275.5000000000009 7471.5000000000009 2016.5000000000002 5.5902896154495556 7.1136814478742769 2016.5000000000002 1.0000000180025095e-35 2017.5000000000002 7.0992729161423762 7.1698368861438881 2110.5000000000005 3.5000000000000004 44.166666666666679
decision_type=2 2 2 2 2 2 2 2 2 2 2 2 2 2
left_child=2 5 3 4 11 7 -3 8 -2 -8 -6 13 -7 -1
right_child=1 6 -4 -5 10 12 9 -9 -10 -11 -12 -13 -14 -15
leaf_value=0.022674729264370464 0.0044025787519970036 -0.0032606068463880578 -0.0051991341496429476 -0.0029625559080484853 0.0042046227083480372 0.0039932429381632616 0.008852482871717202 0.012142642219103682 0.012577019964725728 -0.00088909036242548539 -0.00017215632512368833 -0.0040406913554534487 -0.002074497464398248 0.00039432137130815989
leaf_weight=3.5759236216545096 191.41248602420092 192.88732428103685 294.43940632045269 525.23975809663534 314.66831997036934 175.80113534629345 44.456960439682007 88.884422928094864 46.500492632389069 35.067682817578316 137.91803827136755 219.36971996724606 63.519030906260014 85.196383722126484
leaf_count=48 2218 2603 4136 7069 3777 2188 568 971 532 477 1817 3093 846 1154
internal_value=0 0.00335174 -0.00161939 -0.000799757 0.000693534 0.00543542 -0.000978494 0.00767092 0.00600029 0.00455678 0.00287087 -0.00250445 0.00238278 0.00129182
internal_weight=0 838.53 1580.41 1285.97 760.728 566.118 272.412 326.797 237.913 79.5246 452.586 308.142 239.32 88.7723
internal_count=31497 10403 21094 16958 9889 6755 3648 3721 2750 1045 5594 4295 3034 1202
is_linear=0
shrinkage=0.01


Tree=27
num_leaves=15
num_cat=0
split_feature=21 21 4 5 5 0 6 3 3 12 21 25 18 5
split_gain=109.435 83.8465 41.609 38.471 30.5043 21.2444 18.7572 18.0927 16.9248 14.0695 13.9367 16.3225 13.4361 12.9706
threshold=5.8452551913836652 7.0717889755819305 1.5000000000000002 3.5000000000000004 3.5000000000000004 1.0000000180025095e-35 4.5000000000000009 640.50000000000011 561.50000000000011 2.5000000000000004 6.7558034835134668 0.45000000000000007 2.8166666666666669 3.5000000000000004
decision_type=2 2 2 2 2 2 2 2 2 2 2 2 2 2
left_child=4 2 5 7 6 -2 12 -3 10 -10 -4 -12 -1 -11
right_child=1 3 8 -5 -6 -7 -8 -9 9 13 11 -13 -14 -15
leaf_value=1.0322597775823103e-05 0.0054448735350375197 -0.0015900199217190342 -0.0026983288909701491 -0.0041744232864051366 -0.0053945677161088461 0.012080359809339056 -0.0053419966362282557 0.0024707774346666338 0.0013002667301066815 0.0065299021239177578 0.013727527166746484 -7.5618668555757989e-05 -0.0054739158414466062 0.0021621777921100988
leaf_weight=418.73947935551405 174.34849428385496 186.98895933479071 98.923688180744648 237.90488859266043 291.01644486933947 66.712721846997738 100.17157854139805 265.51383746415377 208.68473210930824 164.89800575375557 12.588950105011461 26.815713711082935 50.007629945874214 115.69341727346182
leaf_count=5655 2002 2486 1325 3273 4146 726 1413 3396 2510 1924 167 358 679 1437
internal_value=0 0.00168237 0.00374982 -0.000918886 -0.00276118 0.00728122 -0.00141414 0.000792723 0.00239342 0.00326659 -0.000695022 0.00433419 -0.000574756 0.004729
internal_weight=0 1559.07 868.666 690.408 859.935 241.061 568.919 452.503 627.605 489.276 138.328 39.4047 468.747 280.591
internal_count=31497 19604 10449 9155 11893 2728 7747 5882 7721 5871 1850 525 6334 3361
is_linear=0
shrinkage=0.01


Tree=28
num_leaves=15
num_cat=0
split_feature=23 2 2 13 21 21 13 0 13 21 5 2 12 5
split_gain=131.574 72.9108 45.4366 40.8015 50.9954 36.6066 33.7352 23.096 24.0024 17.8696 17.8615 17.6965 16.9378 16.45
threshold=0.63333333333333341 5275.5000000000009 7471.5000000000009 2016.5000000000002 5.5902896154495556 7.1136814478742769 2016.5000000000002 1.0000000180025095e-35 2017.5000000000002 7.0992729161423762 3.5000000000000004 2110.5000000000005 2.5000000000000004 3.5000000000000004
decision_type=2 2 2 2 2 2 2 2 2 2 2 2 2 2
left_child=2 5 3 4 11 7 -3 8 -2 -8 -6 -1 -5 -7
right_child=1 6 -4 12 10 13 9 -9 -10 -11 -12 -13 -14 -15
leaf_value=0.0013026756737883583 0.0043032411987915728 -0.0032325388394313162 -0.0051580443602254975 -0.0048904138405060187 0.0041271429370348788 0.003922862355425165 0.0086824079518189011 0.011807208324616769 0.012268653890702516 -0.00085597911167489436 -0.00017989432899309695 -0.003995037272501837 -0.0012822643965692525 -0.0020227218076977901
leaf_weight=88.698410034179688 192.54719547182322 192.25742549449205 292.61690551787615 240.6383765861392 315.75684417784214 176.57087117433548 44.820235669612885 90.101771973073483 47.079998277127743 34.962214142084122 138.52730318903923 218.08569153398275 283.24017018824816 63.187715254724026
leaf_count=1202 2218 2603 4136 3264 3815 2188 568 971 532 477 1779 3093 3805 846
internal_value=0 0.00329476 -0.00160171 -0.00079184 0.000686585 0.00532916 -0.000964046 0.00749111 0.00586822 0.0045025 0.00281377 -0.00246335 -0.00293963 0.00235592
internal_weight=0 841.527 1577.56 1284.95 761.068 569.488 272.04 329.729 239.627 79.7824 454.284 306.784 523.879 239.759
internal_count=31497 10403 21094 16958 9889 6755 3648 3721 2750 1045 5594 4295 7069 3034
is_linear=0
shrinkage=0.01


Tree=29
num_leaves=15
num_cat=0
split_feature=4 6 0 4 11 20 13 3 13 12 12 15 22 3
split_gain=94.0112 58.21 38.5822 24.0349 31.1156 17.7468 17.0386 14.9113 13.41 12.4486 11.4803 10.42 10.0611 14.4617
threshold=2.5000000000000004 3.5000000000000004 1.0000000180025095e-35 1.5000000000000002 1.5000000000000002 1.9000000000000001 2017.5000000000002 755.50000000000011 2017.5000000000002 2.5000000000000004 1.5000000000000002 2.7500000000000004 74.550000000000011 586.50000000000011
decision_type=2 2 2 2 2 2 2 2 2 2 2 2 2 2
left_child=1 2 3 4 8 -2 7 -4 -1 -6 -5 -3 -7 -14
right_child=5 11 6 10 9 12 -8 -9 -10 -11 -12 -13 13 -15
leaf_value=0.01885068783715135 -0.0050500405940572691 -0.0046446739387734342 0.0050480531289527897 -0.0033569975601717194 0.00040200022283811679 -0.0031188242650777411 0.0011735543987900219 0.011283336379015334 -0.0012713174916788644 0.0039157560161889992 0.00045868945900557132 0.0014159207774916125 -0.0027365371409297651 0.0019777589629791942
leaf_weight=16.753728449344639 238.81040071696043 165.93024275451899 253.08291418105364 92.568537063896656 181.13596452772617 270.23680939525366 97.281582362949848 45.203685149550438 4.1280186399817458 227.41444426029921 532.09067244827747 34.218678921461105 129.30457408726215 130.9894950017333
leaf_count=206 3393 2304 3126 1210 2266 3625 1237 531 52 2802 6785 473 1783 1704
internal_value=0 0.00144668 0.00214463 0.00114525 0.00296645 -0.00278629 0.00480774 0.00599298 0.0148729 0.00235789 -0.000106759 -0.00360852 -0.00176729 -0.000364131
internal_weight=0 1649.81 1449.66 1054.09 429.432 769.341 395.568 298.287 20.8817 408.55 624.659 200.149 530.531 260.294
internal_count=31497 20992 18215 13321 5326 10505 4894 3657 258 5068 7995 2777 7112 3487
is_linear=0
shrinkage=0.01


Tree=30
num_leaves=15
num_cat=0
split_feature=5 21 21 2 21 21 2 6 3 0 13 12 2 15
split_gain=95.4106 79.1183 41.2429 29.4531 22.2137 27.6044 19.3985 18.7273 15.6092 19.514 14.9737 14.89 17.8696 14.5175
threshold=3.5000000000000004 5.9157778652611341 7.0717889755819305 6236.5000000000009 5.5573716516986424 7.0717889755819305 13726.000000000002 4.5000000000000009 728.50000000000011 1.0000000180025095e-35 2017.5000000000002 2.5000000000000004 7992.5000000000009 1.2500000000000002
decision_type=2 2 2 2 2 2 2 2 2 2 2 2 2 2
left_child=1 7 3 8 -2 6 -6 13 -3 -10 -11 -4 -13 -1
right_child=4 2 11 -5 5 -7 -8 -9 9 10 -12 12 -14 -15
leaf_value=-0.0071800739648116944 -0.0055618235266606036 0.0049332181281768802 -0.0012830926738212308 -0.00022275238676755724 0.00071320432010043091 -0.0044939764495622999 -0.00607282876759255 -0.0054848471260458779 0.0064301513072290819 0.019291370791607171 0.0040510229538029937 0.0034688770517720953 -0.0040507379780222496 -0.00026299731598472732
leaf_weight=32.497382819652557 215.69982222467661 344.43311605602503 189.03938755393028 91.88972182571888 330.00595461577177 239.06533936411142 48.288699433207512 99.267276294529438 76.432329133152962 25.874928444623947 8.5859197080135328 223.32873478531837 36.811727024614811 457.5209426805377
leaf_count=442 3145 3902 2477 1229 4185 3308 679 1413 860 265 98 2828 514 6153
internal_value=0 0.00138049 0.00309831 0.00494158 -0.00279923 -0.00183401 -0.000153022 -0.00152409 0.0059838 0.00924688 0.0154942 0.000852732 0.0024048 -0.000721729
internal_weight=0 1585.68 996.396 547.216 833.06 617.36 378.295 589.286 455.326 110.893 34.4608 449.18 260.14 490.018
internal_count=31498 20181 12173 6354 11317 8172 4864 8008 5125 1223 363 5819 3342 6595
is_linear=0
shrinkage=0.01


Tree=31
num_leaves=15
num_cat=0
split_feature=23 4 5 0 21 13 13 5 13 3 12 22 10 21
split_gain=108.707 57.7309 42.9257 39.7051 33.7871 39.2247 28.5882 24.8065 23.5338 20.6013 17.5692 17.6503 16.4735 15.167
threshold=0.63333333333333341 2.5000000000000004 3.5000000000000004 1.0000000180025095e-35 5.8761458504312705 2016.5000000000002 2016.5000000000002 2.5000000000000004 2016.5000000000002 755.50000000000011 2.5000000000000004 77.550000000000011 4.5000000000000009 6.9706355435785872
decision_type=2 2 2 2 2 2 2 2 2 2 2 2 2 2
left_child=2 3 4 6 -1 9 7 -2 -3 13 -8 -12 -5 -6
right_child=1 8 -4 12 5 -7 10 -9 -10 -11 11 -13 -14 -15
leaf_value=-0.0022372977293366827 0.0035842380451625252 -0.0028945942490028495 -0.0039001388961799454 0.0073452972467457538 0.0049212177471834664 -0.0019008867031509696 0.0028781733622931776 -0.0024263896428371153 0.0034823620566361174 0.010711818274862962 0.01471636408826376 0.0045759454314209629 0.015524195773586599 0.00015049544739773757
leaf_weight=513.89278116822243 182.591932117939 189.9353184774518 539.46433529257774 122.61448323726654 144.58103910088539 214.07438690215349 56.886338919401169 110.04655744880438 83.231205359101295 36.689297944307327 39.9487344622612 30.096578948199749 30.815203949809074 123.61544479429722
leaf_count=7083 2163 2534 7503 1411 1686 2794 688 1377 1073 419 464 356 355 1592
internal_value=0 0.00283143 -0.00161387 0.00463492 -0.000419745 0.00138006 0.00304308 0.00132394 -0.000951597 0.00368376 0.00700652 0.0103593 0.00898797 0.00272233
internal_weight=0 846.166 1572.32 573 1032.85 518.96 419.57 292.638 273.167 304.886 126.932 70.0453 153.43 268.196
internal_count=31498 10421 21077 6814 13574 6491 5048 3540 3607 3697 1508 820 1766 3278
is_linear=0
shrinkage=0.01


Tree=32
num_leaves=15
num_cat=0
split_feature=23 2 5 13 6 2 13 5 13 23 15 15 17 2
split_gain=106.443 59.7254 42.2823 32.7543 49.0127 30.8097 30.2918 25.9703 22.7667 18.6749 29.0457 25.5714 18.1702 17.9905
threshold=0.63333333333333341 6051.5000000000009 3.5000000000000004 2016.5000000000002 2.5000000000000004 7471.5000000000009 2016.5000000000002 3.5000000000000004 2016.5000000000002 0.77500000000000013 1.7500000000000002 1.7500000000000002 5.0625000000000009 1744.5000000000002
decision_type=2 2 2 2 2 2 2 2 2 2 2 2 2 2
left_child=2 6 3 4 5 13 7 12 -3 10 -8 -11 -2 -1
right_child=1 8 -4 -5 -6 -7 9 -9 -10 11 -12 -13 -14 -15
leaf_value=0.0088722739716729088 0.0064528514732653539 -0.0036709660087876177 -0.0038739239222428702 -0.0025589362919302252 -0.0022976448135208927 -0.0043320844822942245 -0.00031881219458740237 -0.0011800670269920433 0.0032798224943160208 0.013889717795520371 0.023574176142828512 0.0044575205490792729 0.0016203001424957928 0.0032254568954410822
leaf_weight=73.881830029189587 182.55401200056076 158.81796586513519 537.69268643856049 421.78127216547728 253.55711095035076 44.513560198247433 7.4285189211368587 113.41490177065134 67.003690168261528 36.88140719383955 16.148015037178993 130.25123985856771 135.59572371840477 238.72200511395931
leaf_count=887 2102 2205 7503 5691 3399 619 85 1424 888 431 182 1531 1573 2978
internal_value=0 0.0027966 -0.00159999 -0.000415751 0.00106451 0.00345167 0.00439524 0.00292856 -0.00160859 0.00771425 0.0160459 0.00653894 0.00439321 0.00456004
internal_weight=0 848.095 1570.15 1032.46 610.675 357.117 622.274 431.565 225.822 190.709 23.5765 167.133 318.15 312.604
internal_count=31498 10421 21077 13574 7883 4484 7328 5099 3093 2229 267 1962 3675 3865
is_linear=0
shrinkage=0.01


Tree=33
num_leaves=15
num_cat=0
split_feature=23 2 4 13 21 13 13 4 21 20 19 18 16 15
split_gain=104.229 58.2708 40.9894 43.1293 36.8571 29.3256 22.3517 20.9624 20.6883 22.6998 20.7412 19.8464 19.353 16.7479
threshold=0.63333333333333341 6051.5000000000009 2.5000000000000004 2016.5000000000002 5.5902896154495556 2016.5000000000002 2016.5000000000002 1.5000000000000002 7.5816847461839032 2.666666666666667 0.92857142857142871 2.5357142857142865 2.5500000000000003 1.7500000000000002
decision_type=2 2 2 2 2 2 2 2 2 2 2 2 2 2
left_child=2 5 3 4 -1 7 -3 -2 9 11 -11 -7 -6 -10
right_child=1 6 -4 -5 12 8 -8 -9 13 10 -12 -13 -14 -15
leaf_value=-0.0017906923225388743 0.005762015476474024 -0.0036455877501437133 -0.0039756435360186193 -0.0029130776952023159 0.0044663931190597247 0.014589818623606768 0.0032381001554486438 0.0012037075677719933 0.012359589356073467 0.0035097244265937712 0.032930609025845055 0.00095151745592886381 -0.00061393779265898755 -0.002058229281321153
leaf_weight=254.13578958809376 160.25410199910402 158.32679487764835 492.45428441464901 436.94330168515444 282.38403619080782 74.726112149655819 67.18741998821497 272.32901927828789 10.702608063817022 58.937224358320236 2.4977416396141043 12.447227299213408 102.09219574183226 32.590668931603432
leaf_count=3558 1835 2205 6927 5915 3427 844 888 3264 130 676 28 141 1250 410
internal_value=0 0.00276229 -0.00158621 -0.000492182 0.00116421 0.00433571 -0.00159473 0.00289237 0.00758926 0.00936145 0.00470588 0.0126424 0.00311738 0.00150603
internal_weight=0 849.999 1568.01 1075.56 638.612 624.485 225.514 432.583 191.902 148.608 61.435 87.1733 384.476 43.2933
internal_count=31498 10421 21077 14150 8235 7328 3093 5099 2229 1689 704 985 4677 540
is_linear=0
shrinkage=0.01


Tree=34
num_leaves=15
num_cat=0
split_feature=5 21 21 2 21 21 2 6 3 0 12 2 3 15
split_gain=89.8244 73.6555 39.6928 27.2551 21.615 27.4029 19.0194 18.2788 14.6415 18.3504 14.4911 16.907 14.4429 14.3335
threshold=3.5000000000000004 5.9157778652611341 7.0717889755819305 6236.5000000000009 5.5573716516986424 7.0717889755819305 13726.000000000002 4.5000000000000009 728.50000000000011 1.0000000180025095e-35 2.5000000000000004 7992.5000000000009 609.50000000000011 1.2500000000000002
decision_type=2 2 2 2 2 2 2 2 2 2 2 2 2 2
left_child=1 7 3 8 -2 6 -6 13 12 -10 -4 -12 -3 -1
right_child=4 2 10 -5 5 -7 -8 -9 9 -11 11 -13 -14 -15
leaf_value=-0.0071383078997607312 -0.0054775454588011042 0.0094257203588850244 -0.0013256849799761234 -0.00020272323524548989 0.00075373877031546842 -0.0044404918981789604 -0.0060028809053810223 -0.0054183349104488 0.0061782197034313223 0.014884545273400912 0.0033266211522108373 -0.0040025131608969981 0.0038639627701757152 -0.00023587956222481017
leaf_weight=32.207756690680981 212.78528513014317 55.560981057584286 189.77627794444561 91.729717582464218 328.93211088329554 237.32788751274347 47.703933551907539 98.229145988821983 77.455292046070099 35.215630903840065 225.37170214951038 36.58386267721653 292.46159368753433 456.42397163808346
leaf_count=442 3145 631 2477 1229 4185 3308 679 1413 860 363 2828 514 3271 6153
internal_value=0 0.00133234 0.00297722 0.00477509 -0.00273097 -0.00177907 -0.000102041 -0.00148214 0.00576624 0.00889941 0.000778593 0.00230306 0.00475188 -0.000690847
internal_weight=0 1591.02 1004.16 552.423 826.749 613.964 376.636 586.861 460.693 112.671 451.732 261.956 348.023 488.632
internal_count=31498 20181 12173 6354 11317 8172 4864 8008 5125 1223 5819 3342 3902 6595
is_linear=0
shrinkage=0.01


Tree=35
num_leaves=15
num_cat=0
split_feature=5 23 6 3 2 6 2 12 15 3 15 1 23 12
split_gain=104.765 70.0968 32.4677 29.0624 25.6892 21.5109 20.5993 17.4431 15.0893 15.8946 14.9023 16.483 15.7327 14.7289
threshold=3.5000000000000004 0.63333333333333341 3.5000000000000004 586.50000000000011 10072.500000000002 3.5000000000000004 10072.500000000002 2.5000000000000004 1.2500000000000002 688.50000000000011 2.7500000000000004 1.0000000180025095e-35 0.45000000000000007 2.5000000000000004
decision_type=2 2 2 2 2 2 2 2 2 2 2 2 2 2
left_child=1 2 6 -3 5 -2 8 -5 9 -1 -4 -12 -13 -10
right_child=4 3 10 7 -6 -7 -8 -9 13 -11 11 12 -14 -15
leaf_value=-0.0081843817084439469 -0.0013791695600239324 -0.00060079722992657553 -0.0051892529621944943 0.003159491571744312 -0.0064873028554319132 -0.0068656550384079088 -0.0045666633843007808 0.0070807838811361443 -4.4872704601131049e-05 0.003304962151814474 -0.0013212988084118412 0.0073667110811426323 0.042830863953062528 0.002824681402961997
leaf_weight=33.035610772669315 586.3146740719676 98.992318354547024 152.27525278925896 201.1733416467905 161.96349324285984 81.379835218191147 67.072719410061836 260.1191675812006 315.89255711436272 18.946539878845215 26.230573624372482 4.9449747726321212 1.6744861602783201 412.37723691761494
leaf_count=436 7844 1311 2147 2350 2343 1193 950 2940 4083 242 365 70 22 5265
internal_value=0 0.00146784 -7.75853e-05 0.00431562 -0.00291453 -0.00204787 0.000751309 0.00537068 0.00120846 -0.00399673 -0.00387146 0.00223712 0.0163379 0.00157999
internal_weight=0 1592.73 1032.45 560.285 829.658 667.695 847.325 461.293 780.252 51.9822 185.125 32.85 6.61946 728.27
internal_count=31561 20181 13580 6601 11380 9037 10976 5290 10026 678 2604 457 92 9348
is_linear=0
shrinkage=0.01


Tree=36
num_leaves=15
num_cat=0
split_feature=5 6 2 12 2 6 13 3 11 19 18 1 22 18
split_gain=102.81 56.5789 34.5639 27.1452 25.4263 21.2703 14.9073 15.5794 19.2011 24.2329 12.5934 10.1336 15.1706 14.4172
threshold=3.5000000000000004 3.5000000000000004 6175.5000000000009 2.5000000000000004 10072.500000000002 3.5000000000000004 2016.5000000000002 720.50000000000011 1.5000000000000002 0.15476190476190474 2.7750000000000004 1.0000000180025095e-35 71.291666666666671 2.5857142857142867
decision_type=2 2 2 2 2 2 2 2 2 2 2 2 2 2
left_child=1 2 3 6 5 -2 7 -1 9 -9 -5 -10 13 -13
right_child=4 -3 -4 10 -6 -7 -8 8 11 -11 -12 12 -14 -15
leaf_value=0.0011194251192740226 -0.0013669605007908139 -0.0037348571752459148 -0.0013271645624938022 0.0046864966031623864 -0.0064581528133017679 -0.0068371104466868849 -0.00096384345380179945 0.048313145623640932 0.0031046097612188218 0.0023525059510229769 4.7008856003515203e-05 0.027426763016978391 0.0032402580071402773 -0.0050812696859412745
leaf_weight=230.9997144266963 585.63924787938595 185.83799396455288 239.29871405661106 579.76033278554678 161.0720786973834 80.904783129692078 203.34609232097864 2.3566712066531172 66.514232076704502 2.2352750971913338 65.073234893381596 7.0162079930305499 10.462648563086985 1.6935706362128256
leaf_count=2823 7844 2620 3305 6967 2343 1193 2605 27 796 26 788 83 120 21
internal_value=0 0.00145139 0.00213554 0.00284409 -0.00289256 -0.00203092 0.001155 0.00249607 0.00601854 0.0259404 0.0042183 0.00495093 0.0113563 0.0211057
internal_weight=0 1594.59 1408.76 1169.46 827.616 666.544 524.624 321.278 90.2786 4.59195 644.834 85.6867 19.1724 8.70978
internal_count=31561 20181 17561 14256 11380 9037 6501 3896 1073 53 7755 1020 224 104
is_linear=0
shrinkage=0.01


Tree=37
num_leaves=15
num_cat=0
split_feature=5 21 21 2 21 21 2 3 17 21 13 23 16 19
split_gain=100.892 70.1134 37.2847 33.7017 25.5382 28.7675 16.9462 16.3363 14.1065 15.803 16.5059 15.4546 13.1764 13.0101
threshold=3.5000000000000004 5.6702558190868846 7.1136814478742769 10801.000000000002 5.8452551913836652 7.0992729161423762 16836.000000000004 688.50000000000011 6.2250000000000005 6.4816398982422951 2017.5000000000002 0.77500000000000013 2.1547619047619051 0.30952380952380959
decision_type=2 2 2 2 2 2 2 2 2 2 2 2 2 2
left_child=1 -1 3 8 -2 6 -6 -4 9 -3 13 -12 -13 -11
right_child=4 2 7 -5 5 -7 -8 -9 -10 10 11 12 -14 -15
leaf_value=-0.0017697749032862117 -0.0052914439329857666 0.0040847572399274742 -0.00079394214697028637 -0.0037716449032887708 0.0011503309757962535 -0.0042390204195074457 -0.007130119217448494 0.0032315529512674324 0.0015616691230000246 0.0067264740382686761 -0.0016142006833063504 0.022574793801348508 0.0044617579218091058 0.012311895940256215
leaf_weight=478.15701944380999 285.23905652761459 295.37547793239355 296.18327300995588 48.00517700612545 279.85465958714485 233.38982624560595 27.109432071447372 152.83221857994795 103.86503565311432 97.403006613254547 32.050747774541378 5.6279703453183201 14.023530907928942 72.927142918109894
leaf_count=6666 4191 3395 3849 663 3522 3279 388 1908 1218 1074 398 60 145 805
internal_value=0 0.00143513 0.00280548 0.00430107 -0.00287071 -0.00159287 0.000419046 0.000576223 0.00492485 0.00559997 0.00761571 0.00266688 0.00964913 0.00911788
internal_weight=0 1596.45 1118.29 669.278 825.593 540.354 306.964 449.015 621.273 517.408 222.032 51.7022 19.6515 170.33
internal_count=31561 20181 13515 7758 11380 7189 3910 5757 7095 5877 2482 603 205 1879
is_linear=0
shrinkage=0.01


Tree=38
num_leaves=15
num_cat=0
split_feature=5 21 21 21 21 3 12 18 3 24 6 1 1 3
split_gain=99.0113 68.5807 36.3173 25.251 22.9267 21.6889 20.5586 17.8551 15.9712 12.9736 12.7931 12.5651 12.0848 14.2895
threshold=3.5000000000000004 5.6702558190868846 7.1136814478742769 5.6356824479506082 7.0992729161423762 587.50000000000011 2.5000000000000004 2.3875000000000006 688.50000000000011 0.70833333333333337 3.5000000000000004 1.0000000180025095e-35 1.0000000180025095e-35 770.50000000000011
decision_type=2 2 2 2 2 2 2 2 2 2 2 2 2 2
left_child=1 10 5 -2 -5 11 9 -8 -4 -7 -1 -3 -10 -14
right_child=3 2 8 4 -6 6 7 -9 12 -11 -12 -13 13 -15
leaf_value=-0.00061808896706007897 -0.0056693724641644029 -0.0011915387560648919 -0.00078652421335925467 -0.0001876147859227898 -0.0042117794991160763 0.0014730678893740419 0.008136522991275142 0.0024889152160612804 0.0017273587941659153 0.0066072495207848848 -0.0041121313673867631 0.0071685377411574228 0.0057184081700242407 0.023840093495836476
leaf_weight=322.12975091487169 229.13174976408482 96.590750560164452 295.98788497596979 361.88870636373758 232.55455528199673 175.99487838894129 235.10142982751131 73.475337728857994 120.51588006317616 68.324663706123829 155.31348548084497 22.089562386274338 27.556331776082516 5.1672388166189185
leaf_count=4419 3434 1259 3849 4667 3279 2015 2606 821 1503 772 2247 285 342 63
internal_value=0 0.00141911 0.00277111 -0.00284904 -0.00176192 0.00424334 0.00507595 0.00679177 0.000570175 0.00290886 -0.00175471 0.000364494 0.00319069 0.00857993
internal_weight=0 1598.25 1120.8 823.575 594.443 671.577 552.896 308.577 449.227 244.32 477.443 118.68 153.239 32.7236
internal_count=31561 20181 13515 11380 7946 7758 6214 3427 5757 2787 6666 1544 1908 405
is_linear=0
shrinkage=0.01


Tree=39
num_leaves=15
num_cat=0
split_feature=5 21 21 2 2 21 21 12 24 23 2 21 6 13
split_gain=97.1644 67.0835 35.3803 31.2768 25.1935 23.7592 20.4052 14.5748 18.9315 13.5531 18.4894 12.6501 12.6084 12.3752
threshold=3.5000000000000004 5.6702558190868846 7.0717889755819305 10801.000000000002 10072.500000000002 5.6356824479506082 7.0992729161423762 2.5000000000000004 0.70833333333333337 0.77500000000000013 4399.5000000000009 6.3166426089126251 3.5000000000000004 2016.5000000000002
decision_type=2 2 2 2 2 2 2 2 2 2 2 2 2 2
left_child=1 12 3 7 5 -2 -7 8 -3 13 -11 -10 -1 -4
right_child=4 2 9 -5 -6 6 -8 -9 11 10 -12 -13 -14 -15
leaf_value=-0.00061222796770290958 -0.0050060010109052935 0.001333053254532037 0.00086078413024804907 -0.003638839038106387 -0.0063984768393742369 0.00086747376826426363 -0.0033729196779264661 0.0061311633329512796 0.0018675423162067487 0.0041983076763752979 -0.0017045432615333134 0.010456104021418236 -0.0040853488142206006 -0.0039391104200043811
leaf_weight=321.96228910982609 185.44182056188583 187.67275643348694 125.53691725432873 47.132045693695545 159.26400834321976 290.7394121363759 186.13612972944975 355.44007252156734 27.066829539835453 160.47604282945395 79.278766840696335 46.805365175008774 154.77109722048044 93.886017680168152
leaf_count=4419 2778 2152 1619 652 2343 3653 2606 3995 315 1934 1041 521 2247 1286
internal_value=0 0.00140329 0.00273722 0.00421294 -0.00282745 -0.00196875 -0.000787655 0.00481274 0.003021 0.000602874 0.00224644 0.00730925 -0.00173977 -0.00119298
internal_weight=0 1600.03 1123.29 664.117 821.581 662.317 476.876 616.985 261.545 459.178 239.755 73.8722 476.733 219.423
internal_count=31561 20181 13515 7635 11380 9037 6259 6983 2988 5880 2975 836 6666 2905
is_linear=0
shrinkage=0.01


Tree=40
num_leaves=15
num_cat=0
split_feature=23 3 6 4 5 17 12 12 21 21 3 11 19 21
split_gain=108.865 56.7674 40.4455 36.3803 26.7896 22.5673 17.152 14.1776 14.0199 12.6812 12.1605 11.723 14.921 11.5626
threshold=0.63333333333333341 587.50000000000011 3.5000000000000004 2.5000000000000004 3.5000000000000004 6.8166666666666673 2.5000000000000004 2.5000000000000004 7.0992729161423762 7.1136814478742769 720.50000000000011 1.5000000000000002 0.15476190476190474 7.3512855972996105
decision_type=2 2 2 2 2 2 2 2 2 2 2 2 2 2
left_child=2 8 3 7 5 6 -3 10 -2 -6 -1 12 -12 -8
right_child=1 4 -4 -5 9 -7 13 -9 -10 -11 11 -13 -14 -15
leaf_value=-0.0022071329013006037 0.00060687830519904067 0.0040015394824475482 -0.0050002067638419178 -0.0033277452505401364 0.00329956034955328 -0.001428101361485738 0.0094766422331173886 0.0014452256757091202 -0.004621169983348195 -0.0021035902751387931 0.037408009936123546 0.0010939153421132724 0.0010446284651959058 0.0046771972567266201
leaf_weight=277.92335411906242 118.99094286561012 184.41784755885601 280.55602774769068 394.17986828833818 104.71146331727505 41.51516354829073 169.39179097115993 495.5052058249712 90.159089408814907 74.230988420546055 2.0618175640702239 97.876074992120266 2.4925940707325935 71.336092963814735
leaf_count=3659 1576 2131 4072 5568 1254 481 1811 6356 1275 1019 24 1239 31 849
internal_value=0 0.00288096 -0.00156396 -0.000804878 0.00434777 0.00560918 0.00629637 0.000330537 -0.0016468 0.00105816 -0.00112162 0.00182368 0.0175066 0.0080544
internal_weight=0 854.753 1550.59 1270.04 645.603 466.661 425.146 875.859 209.15 178.942 380.354 102.43 4.55441 240.728
internal_count=31345 10396 20949 16877 7545 5272 4791 11309 2851 2273 4953 1294 55 2660
is_linear=0
shrinkage=0.01


Tree=41
num_leaves=15
num_cat=0
split_feature=23 3 13 13 21 5 17 12 3 3 21 13 20 18
split_gain=106.587 55.3884 36.0685 35.7034 34.0073 24.0071 22.4884 19.9305 18.931 17.6758 17.5311 17.1099 16.2073 18.4418
threshold=0.63333333333333341 587.50000000000011 2016.5000000000002 2016.5000000000002 5.7446869558606624 4.5000000000000009 6.5357142857142865 2.5000000000000004 755.50000000000011 642.50000000000011 7.5816847461839032 2016.5000000000002 2.666666666666667 2.5357142857142865
decision_type=2 2 2 2 2 2 2 2 2 2 2 2 2 2
left_child=3 11 5 4 9 6 -3 -5 -6 -1 12 -2 13 -4
right_child=1 2 10 7 8 -7 -8 -9 -10 -11 -12 -13 -14 -15
leaf_value=-0.0045380602070940893 -0.0035158518019436915 0.0045020538927183782 0.014121186173908505 -0.0054166951406936902 0.00080622189479697673 -0.0030419170966943165 -0.0031556700845746166 -0.0018344005919115377 0.0072521289902415867 -0.00038914565362565846 0.0023907988151123465 0.0027174547377893281 0.0055739103957267444 0.0012207651202654603
leaf_weight=201.33188413083553 145.75798406451941 347.043592043221 76.0311588793993 272.50039619207382 453.33980595320463 62.022688709199429 43.113733552396297 361.13002116978168 50.653230957686901 209.57649973034859 44.893502585589886 63.100206635892391 61.7656579464674 12.972101934254168
leaf_count=2956 2021 3987 846 3802 5688 798 509 4981 574 2948 558 830 701 146
internal_value=0 0.00284556 0.00428929 -0.00155043 -0.00028678 0.00273716 0.00365585 -0.00337501 0.00145406 -0.00242198 0.00787629 -0.00163265 0.00950967 0.012241
internal_weight=0 856.701 647.842 1548.53 914.901 452.18 390.157 633.63 503.993 410.908 195.662 208.858 150.769 89.0033
internal_count=31345 10396 7545 20949 12166 5294 4496 8783 6262 5904 2251 2851 1693 992
is_linear=0
shrinkage=0.01


Tree=42
num_leaves=15
num_cat=0
split_feature=23 13 4 4 13 21 21 17 12 0 13 13 4 18
split_gain=104.357 51.2722 49.5401 38.3445 43.6961 23.509 21.157 20.1609 18.9223 17.4055 17.5016 16.9708 15.125 14.7325
threshold=0.63333333333333341 2016.5000000000002 2.5000000000000004 2.5000000000000004 2016.5000000000002 5.7446869558606624 7.6122313163409165 6.5357142857142865 2.5000000000000004 1.0000000180025095e-35 2015.5000000000002 2015.5000000000002 1.5000000000000002 2.2678571428571432
decision_type=2 2 2 2 2 2 2 2 2 2 2 2 2 2
left_child=3 2 7 4 5 -1 13 9 -6 12 -11 -4 -2 -3
right_child=1 6 11 -5 8 -7 -8 -9 -10 10 -12 -13 -14 -15
leaf_value=-0.00094955991543859656 0.0053200966670007123 0.0098585643526799081 0.00020184038577707828 -0.00388407373253387 -0.0052128921093194001 0.0029353497297928788 0.0011380065713875081 -0.0031481032040721882 -0.0010263983931632127 0.00340095479459255 0.011771708876785157 -0.0058960087092269397 0.00052311421215481529 0.0040635284076884796
leaf_weight=281.14678482711315 114.55761747807264 138.95573065429926 83.823522210121155 480.01372481137514 196.65203960984945 349.2812195494771 57.077161327004433 45.705864697694778 239.38688946515322 51.580115363001823 48.429318681359291 100.19376886636019 154.20858608931303 64.109395422041416
leaf_count=3957 1308 1606 1128 6891 2717 4157 725 548 3227 575 537 1356 1863 750
internal_value=0 0.00281061 0.00119956 -0.001537 -0.000480592 0.00120283 0.00651708 0.00311656 -0.00291449 0.003893 0.00745447 -0.00311832 0.00256776 0.00802902
internal_weight=0 858.641 598.499 1546.48 1066.47 630.428 260.142 414.482 436.039 368.776 100.009 184.017 268.766 203.065
internal_count=31345 10396 7315 20949 14058 8114 3081 4831 5944 4283 1112 2484 3171 2356
is_linear=0
shrinkage=0.01


Tree=43
num_leaves=15
num_cat=0
split_feature=23 4 6 13 4 13 13 17 0 13 13 12 4 4
split_gain=102.174 50.1943 39.7147 44.2516 45.5286 30.2581 23.8289 19.6985 16.8702 16.8457 16.7571 14.9692 14.7235 14.5979
threshold=0.63333333333333341 2.5000000000000004 3.5000000000000004 2016.5000000000002 2.5000000000000004 2016.5000000000002 2016.5000000000002 6.5357142857142865 1.0000000180025095e-35 2015.5000000000002 2015.5000000000002 2.5000000000000004 1.5000000000000002 1.5000000000000002
decision_type=2 2 2 2 2 2 2 2 2 2 2 2 2 2
left_child=2 6 3 4 13 10 7 8 12 -10 -3 -5 -2 -1
right_child=1 5 -4 11 -6 -7 -8 -9 9 -11 -12 -13 -14 -15
leaf_value=0.0044086085503501019 0.0052443277850275543 0.00019978809933651864 -0.0049444715822982996 -0.0049870768819047714 -0.002903004193096212 0.004196074506786363 0.0074417712202420319 -0.0031246651616620371 0.0033578008801069359 0.011545096459210917 -0.0058660991007992748 -0.0015479311276110853 0.00051766120622759293 0.0010047722352657534
leaf_weight=216.66252286732197 115.04810712486506 83.837671674787998 278.24600878357887 221.70174659788609 231.83205311000347 82.497000053524971 179.0154814645648 45.588805645704269 51.719877190887928 48.883797831833363 99.700065188109875 294.91619952768087 154.27435735613108 301.08326217532158
leaf_count=2650 1308 1128 4072 3083 3272 1049 2032 548 575 537 1356 4023 1863 3849
internal_value=0 0.00277614 -0.00152368 -0.000771968 0.000780027 -0.000834241 0.00439168 0.00307762 0.00384197 0.00733605 -0.00309528 -0.00302381 0.00253678 0.00242919
internal_weight=0 860.565 1544.44 1266.2 749.578 266.035 594.53 415.515 369.926 100.604 183.538 516.618 269.322 517.746
internal_count=31345 10396 20949 16877 9771 3533 6863 4831 4283 1112 2484 7106 3171 6499
is_linear=0
shrinkage=0.01


Tree=44
num_leaves=15
num_cat=0
split_feature=23 4 4 12 0 21 17 5 17 11 15 4 7 10
split_gain=100.04 48.945 37.3616 22.6359 20.7325 18.7278 17.9343 17.1219 18.9436 18.6875 16.4779 15.5985 14.24 11.8757
threshold=0.63333333333333341 2.5000000000000004 2.5000000000000004 2.5000000000000004 1.0000000180025095e-35 7.0717889755819305 6.8166666666666673 2.5000000000000004 4.5357142857142865 1.5000000000000002 1.2500000000000002 1.5000000000000002 1.5000000000000002 4.5000000000000009
decision_type=2 2 2 2 2 2 2 2 2 2 2 2 2 2
left_child=2 4 3 -1 7 -3 13 8 12 11 -8 -10 -2 -6
right_child=1 5 -4 -5 6 -7 10 -9 9 -11 -12 -13 -14 -15
leaf_value=-0.0021352745997232966 0.011081575678912827 0.0014499627758412612 -0.0038360955572963335 0.0008062131022452618 0.0069500103351873609 -0.0039210271964946657 0.021937058826877829 0.00065039589525144287 0.035699669913323823 0.0018411890729810706 -0.0084337868661867564 0.0063477902402738042 0.0036587399885907985 0.013966142642531307
leaf_weight=461.81000706553459 62.633909612894058 153.165422052145 477.11261906474829 603.49943453073502 119.3023586422205 112.68024403601885 2.1190853193402281 164.71533992141485 2.9893247410655013 154.64881646633148 11.380463965237139 4.5915113911032677 44.000826425850391 30.239883437752724
leaf_count=6155 706 1954 6891 7903 1315 1579 24 2007 33 1767 132 53 495 331
internal_value=0 0.0027422 -0.00151048 -0.000468917 0.00433239 -0.000826563 0.0073723 0.00318927 0.00474467 0.00259263 -0.00366634 0.017922 0.00801868 0.00836879
internal_weight=0 862.467 1542.42 1065.31 596.622 265.846 163.042 433.58 268.864 162.23 13.4995 7.58084 106.635 149.542
internal_count=31345 10396 20949 14058 6863 3533 1802 5061 3054 1853 156 86 1201 1646
is_linear=0
shrinkage=0.01


Tree=45
num_leaves=15
num_cat=0
split_feature=4 21 21 6 21 21 2 0 13 15 2 5 2 22
split_gain=89.5003 60.0002 51.9328 21.7924 21.2244 30.0318 25.9097 20.306 19.869 16.7378 16.6026 14.9986 18.5751 14.5287
threshold=2.5000000000000004 5.8452551913836652 7.0717889755819305 4.5000000000000009 5.8452551913836652 7.2065019941024042 10296.500000000002 1.0000000180025095e-35 2017.5000000000002 1.7500000000000002 6236.5000000000009 2.5000000000000004 5876.7198267074427 37.583333333333336
decision_type=2 2 2 2 2 2 2 2 2 2 2 2 2 2
left_child=1 3 7 -1 -2 6 -6 10 -9 -4 11 12 -3 -13
right_child=4 2 9 -5 5 -7 -8 8 -10 -11 -12 13 -14 -15
leaf_value=-0.00038213457884975113 -0.0051814938419140555 0.0053181913815092807 0.0036265878449111156 -0.0055063125874276917 0.0020379473954863091 -0.0047564833848188614 -0.004770187434509114 0.0096849051531450112 0.0016757010564746617 -0.00081205466305242393 -0.002161918302352731 0.025923538004476849 0.025490742118942786 0.0012838342821239518
leaf_weight=476.63864254206419 255.63433573395014 245.15648943930864 111.06491359323263 100.49502183496952 224.74792744219303 187.90514965355396 74.405274994671345 122.43938045948744 41.46304102987051 361.40860985219479 45.790501736104488 2.4327599927783004 4.6512750238180152 146.66755582392216
leaf_count=6510 3843 2655 1402 1499 2854 2684 1067 1283 473 4638 608 28 54 1708
internal_value=0 0.00132904 0.00271889 -0.0012744 -0.00284807 -0.00162336 0.000344631 0.00465003 0.00765879 0.000231342 0.0035411 0.00419574 0.00569379 0.00168586
internal_weight=0 1658.21 1081.07 577.134 742.693 487.058 299.153 608.601 163.902 472.474 444.699 398.908 249.808 149.1
internal_count=31306 20858 12849 8009 10448 6605 3921 6809 1756 6040 5053 4445 2709 1736
is_linear=0
shrinkage=0.01


Tree=46
num_leaves=15
num_cat=0
split_feature=4 23 0 6 21 21 2 2 5 17 21 3 22 0
split_gain=87.8345 74.7066 37.182 31.2741 20.9751 29.5857 25.4467 20.4605 15.3359 14.3543 13.921 13.2897 12.8145 12.4411
threshold=2.5000000000000004 0.63333333333333341 1.0000000180025095e-35 3.5000000000000004 5.8452551913836652 7.2065019941024042 10296.500000000002 6175.5000000000009 3.5000000000000004 6.5357142857142865 7.1784075574905941 574.50000000000011 57.708333333333336 1.0000000180025095e-35
decision_type=2 2 2 2 2 2 2 2 2 2 2 2 2 2
left_child=1 3 7 13 -2 6 -6 8 12 10 -4 -12 -3 -1
right_child=4 2 9 -5 5 -7 -8 -9 -10 -11 11 -13 -14 -15
leaf_value=-0.00019529614285006155 -0.005152609254289107 0.0096504154568314033 0.011771827881298933 -0.0039349865056874196 0.0020141583603604778 -0.0047280519340011694 -0.0047417492854562619 -0.0036015906700852989 -0.001181765698819713 -0.00041839680376930233 0.020754761571910158 0.003724882021639201 0.0035368653671165986 0.0024732655900848222
leaf_weight=638.86135248839855 254.50239547342062 38.996583536267281 88.52952815592289 190.47153323143721 225.12646722793579 187.14854718744755 74.104511871933937 46.752826109528542 61.270645596086979 16.885569624602795 5.0573101341724387 48.798247091472149 283.82473255693913 240.4620835930109
leaf_count=8288 3843 435 903 2761 2854 2684 1067 635 765 195 68 579 3165 3064
internal_value=0 0.00131433 0.00417073 -0.000261306 -0.00282656 -0.00160943 0.000341059 0.00264455 0.00340485 0.00829921 0.00933304 0.00532407 0.00427538 0.000534456
internal_weight=0 1659.91 590.115 1069.79 740.882 486.38 299.231 430.845 384.092 159.271 142.385 53.8556 322.821 879.323
internal_count=31306 20858 6745 14113 10448 6605 3921 5000 4365 1745 1550 647 3600 11352
is_linear=0
shrinkage=0.01


Tree=47
num_leaves=15
num_cat=0
split_feature=4 23 13 6 0 13 2 21 21 2 2 0 6 21
split_gain=86.1993 72.9252 44.3238 48.7211 37.2177 23.0429 20.8456 20.7278 29.1453 24.9921 19.272 16.786 15.5097 14.5669
threshold=2.5000000000000004 0.55000000000000016 2016.5000000000002 2.5000000000000004 1.0000000180025095e-35 2016.5000000000002 6620.5000000000009 5.8452551913836652 7.2065019941024042 10296.500000000002 6236.5000000000009 1.0000000180025095e-35 4.5000000000000009 7.0288762063515806
decision_type=2 2 2 2 2 2 2 2 2 2 2 2 2 2
left_child=1 2 3 6 5 10 11 -2 9 -9 -3 13 -5 -1
right_child=7 4 -4 12 -6 -7 -8 8 -10 -11 -12 -13 -14 -15
leaf_value=0.0050406903798086338 -0.005123776508683944 0.0019370624318133941 -0.0027412537659741087 -0.00059422923484992948 0.0082135815979334 0.0060764059751100656 -0.003355578746726966 0.0019906875804747621 -0.0046996913308001978 -0.0047133811503354758 -0.0062225262906968242 0.0081404185618111132 -0.00645641762969963 -1.1824024526197908e-05
leaf_weight=151.84176955372095 253.38084076717496 269.56007035821676 430.67960783839226 205.27301170676947 160.93248803168535 131.4842915609479 37.317159667611122 225.50106982141733 186.39890197664499 73.806514583528042 32.428286351263523 92.820311337709427 57.851279094815254 91.418094031512737
leaf_count=1826 3843 3091 5901 2702 1754 1483 514 2854 2684 1067 451 1112 866 1158
internal_value=0 0.00129979 -0.000263691 0.00141266 0.00410688 0.00258222 0.00373511 -0.00280516 -0.0015956 0.000337526 0.00106086 0.00452244 -0.00188311 0.00314193
internal_weight=0 1661.61 1067.2 636.522 594.405 433.473 373.397 739.087 485.706 299.308 301.988 336.08 263.124 243.26
internal_count=31306 20858 14079 8178 6779 5025 4610 10448 6605 3921 3542 4096 3568 2984
is_linear=0
shrinkage=0.01


Tree=48
num_leaves=15
num_cat=0
split_feature=4 23 13 6 0 13 3 21 21 2 2 2 0 3
split_gain=84.5937 71.1804 43.4997 47.6244 36.0477 22.408 24.1234 20.4823 28.7106 24.5456 20.3492 18.9413 16.2407 17.0037
threshold=2.5000000000000004 0.55000000000000016 2016.5000000000002 2.5000000000000004 1.0000000180025095e-35 2016.5000000000002 766.50000000000011 5.8452551913836652 7.2065019941024042 10296.500000000002 6620.5000000000009 6236.5000000000009 1.0000000180025095e-35 755.50000000000011
decision_type=2 2 2 2 2 2 2 2 2 2 2 2 2 2
left_child=1 2 3 10 5 11 -7 -2 9 -9 12 -3 -1 -14
right_child=7 4 -4 -5 -6 6 -8 8 -10 -11 -12 -13 13 -15
leaf_value=0.0031025054967768156 -0.0050949963841901607 0.0019146907400123207 -0.0027201333599643773 -0.0018672990870658942 0.0080786021618552001 0.0047660480390270482 0.020948449536516211 0.0019675298694972836 -0.0046714022841277247 -0.0046850837218825854 -0.0033314711009282778 -0.0061929072879907988 0.00605550991632037 0.017337371536238093
leaf_weight=243.88277158886194 252.26958373561502 269.98044890910387 429.68836761265993 262.70399788767099 161.97985687851906 122.1614435762167 9.9632985442876798 225.8717765212059 185.65615714341402 73.511261627078056 37.211859121918678 32.25840213149786 77.284771330654621 16.151034809648991
leaf_count=2984 3843 3091 5901 3568 1754 1375 108 2854 2684 1067 514 451 932 180
internal_value=0 0.00128543 -0.000261185 0.00139689 0.00405248 0.00255109 0.00598633 -0.00278389 -0.00158188 0.00033403 0.00368646 0.00104935 0.00446066 0.00800566
internal_weight=0 1663.27 1066.92 637.234 596.343 434.364 132.125 737.309 485.039 299.383 374.53 302.239 337.319 93.4358
internal_count=31306 20858 14079 8178 6779 5025 1483 10448 6605 3921 4610 3542 4096 1112
is_linear=0
shrinkage=0.01


Tree=49
num_leaves=15
num_cat=0
split_feature=4 23 13 6 0 13 2 21 21 2 2 0 6 21
split_gain=83.0176 69.4809 42.6908 46.5537 34.9217 21.7928 20.2944 20.6828 33.1633 19.866 18.6164 15.7174 15.3435 14.1465
threshold=2.5000000000000004 0.55000000000000016 2016.5000000000002 2.5000000000000004 1.0000000180025095e-35 2016.5000000000002 10296.500000000002 5.8452551913836652 7.2065019941024042 6620.5000000000009 6236.5000000000009 1.0000000180025095e-35 4.5000000000000009 7.0288762063515806
decision_type=2 2 2 2 2 2 2 2 2 2 2 2 2 2
left_child=1 2 3 9 5 10 7 -2 -9 11 -3 13 -5 -1
right_child=6 4 -4 12 -6 -7 -8 8 -10 -11 -12 -13 -14 -15
leaf_value=0.0049262627104521622 -0.004500017601781669 0.0018926129170969751 -0.0026991304863309131 -0.00057080649873296344 0.007946790637487931 0.005898028253375107 -0.0056159334564873375 0.0019446801218851828 -0.0042977860453883151 -0.0033074743913318527 -0.0061633086101076928 0.0078742260889076154 -0.0064190632424344952 -4.2661328879844958e-05
leaf_weight=152.85046353191137 186.69889410212636 270.3964404463768 428.70655347779393 204.85321499407291 163.01465540379286 132.75709066540003 186.18905724957585 226.23862948268652 136.41957195848227 37.107549250125885 32.090033508837223 94.041509330272675 57.440429978072643 91.651834964752197
leaf_count=1826 2835 3091 5901 2702 1754 1483 2807 2854 1952 514 451 1112 866 1158
internal_value=0 0.00127123 -0.000258694 0.00138131 0.00399898 0.00252038 -0.00276273 -0.00179571 -0.000403521 0.0036386 0.00103798 0.00439995 -0.00185153 0.00306366
internal_weight=0 1664.91 1066.65 637.945 598.258 435.244 735.546 549.357 362.658 375.651 302.486 338.544 262.294 244.502
internal_count=31306 20858 14079 8178 6779 5025 10448 7641 4806 4610 3542 4096 3568 2984
is_linear=0
shrinkage=0.01


Tree=50
num_leaves=15
num_cat=0
split_feature=2 23 13 21 21 21 6 2 3 2 1 12 3 21
split_gain=75.5735 69.2339 39.919 41.6069 22.0483 18.4136 15.5659 14.5214 13.334 12.1289 12.0264 11.9189 11.3862 11.3759
threshold=6175.5000000000009 0.63333333333333341 2016.5000000000002 5.5902896154495556 7.1136814478742769 7.4055441532258088 2.5000000000000004 4399.5000000000009 802.50000000000011 18317.500000000004 1.0000000180025095e-35 2.5000000000000004 725.50000000000011 5.9522336680481862
decision_type=2 2 2 2 2 2 2 2 2 2 2 2 2 2
left_child=1 2 3 6 10 12 -1 -6 -8 -2 -3 -4 -5 -14
right_child=9 4 11 5 7 -7 8 -9 -10 -11 -12 -13 13 -15
leaf_value=0.0014402670131261571 -0.0024706475618182966 0.0041933889743792094 -0.0045323996260211294 0.0029785103930688125 0.0025269893370994763 -0.0010737077998688824 -0.0039732640539289531 -0.0031660767189816436 0.020678478889666143 -0.0060884911187689275 0.0086399931991973187 -0.0013076260908120765 0.00051242207942218487 0.0093253917814227743
leaf_weight=87.010333277285099 475.70923117548227 310.4949781447649 215.67644770815969 248.83006462454796 218.0369643047452 89.291492410004139 184.63335398957133 56.391587689518929 2.2205271348357192 115.08413942530751 75.642425701022148 244.59732620045543 19.088671199977398 62.94182388484478
leaf_count=1203 6868 3357 3041 2934 2652 1153 2709 706 31 1720 746 3335 231 682
internal_value=0 0.000942381 -0.000535157 0.000979295 0.00352427 0.00295609 -0.00205343 0.00135714 -0.00368031 -0.00317539 0.00506446 -0.0028187 0.00404364 0.00727459
internal_weight=0 1814.86 1154.29 694.016 660.566 420.152 273.864 274.429 186.854 590.793 386.137 460.274 330.861 82.0305
internal_count=31368 22780 15319 8943 7461 5000 3943 3358 2740 8588 4103 6376 3847 913
is_linear=0
shrinkage=0.01


Tree=51
num_leaves=15
num_cat=0
